{"learner":{"attributes":{"scikit_learn":"{\"_estimator_type\": \"regressor\"}"},"feature_names":[],"feature_types":[],"gradient_booster":{"model":{"cats":{"enc":[],"feature_segments":[],"sorted_idx":[]},"gbtree_model_param":{"num_parallel_tree":"1","num_trees":"300"},"iteration_indptr":[0,1,2,3,4,5,6,7,8,9,10,11,12,13,14,15,16,17,18,19,20,21,22,23,24,25,26,27,28,29,30,31,32,33,34,35,36,37,38,39,40,41,42,43,44,45,46,47,48,49,50,51,52,53,54,55,56,57,58,59,60,61,62,63,64,65,66,67,68,69,70,71,72,73,74,75,76,77,78,79,80,81,82,83,84,85,86,87,88,89,90,91,92,93,94,95,96,97,98,99,100,101,102,103,104,105,106,107,108,109,110,111,112,113,114,115,116,117,118,119,120,121,122,123,124,125,126,127,128,129,130,131,132,133,134,135,136,137,138,139,140,141,142,143,144,145,146,147,148,149,150,151,152,153,154,155,156,157,158,159,160,161,162,163,164,165,166,167,168,169,170,171,172,173,174,175,176,177,178,179,180,181,182,183,184,185,186,187,188,189,190,191,192,193,194,195,196,197,198,199,200,201,202,203,204,205,206,207,208,209,210,211,212,213,214,215,216,217,218,219,220,221,222,223,224,225,226,227,228,229,230,231,232,233,234,235,236,237,238,239,240,241,242,243,244,245,246,247,248,249,250,251,252,253,254,255,256,257,258,259,260,261,262,263,264,265,266,267,268,269,270,271,272,273,274,275,276,277,278,279,280,281,282,283,284,285,286,287,288,289,290,291,292,293,294,295,296,297,298,299,300],"tree_info":[0,0,0,0,0,0,0,0,0,0,0,0,0,0,0,0,0,0,0,0,0,0,0,0,0,0,0,0,0,0,0,0,0,0,0,0,0,0,0,0,0,0,0,0,0,0,0,0,0,0,0,0,0,0,0,0,0,0,0,0,0,0,0,0,0,0,0,0,0,0,0,0,0,0,0,0,0,0,0,0,0,0,0,0,0,0,0,0,0,0,0,0,0,0,0,0,0,0,0,0,0,0,0,0,0,0,0,0,0,0,0,0,0,0,0,0,0,0,0,0,0,0,0,0,0,0,0,0,0,0,0,0,0,0,0,0,0,0,0,0,0,0,0,0,0,0,0,0,0,0,0,0,0,0,0,0,0,0,0,0,0,0,0,0,0,0,0,0,0,0,0,0,0,0,0,0,0,0,0,0,0,0,0,0,0,0,0,0,0,0,0,0,0,0,0,0,0,0,0,0,0,0,0,0,0,0,0,0,0,0,0,0,0,0,0,0,0,0,0,0,0,0,0,0,0,0,0,0,0,0,0,0,0,0,0,0,0,0,0,0,0,0,0,0,0,0,0,0,0,0,0,0,0,0,0,0,0,0,0,0,0,0,0,0,0,0,0,0,0,0,0,0,0,0,0,0,0,0,0,0,0,0,0,0,0,0,0,0,0,0,0,0,0,0,0,0,0,0,0,0],"trees":[{"base_weights":[-1.8087665E0,-2.235818E2,1.0861628E3,-3.7670628E1,-1.05899E3,8.8278534E2,2.985204E3,1.1500288E2,-9.2338464E2,-7.099615E2,-1.514111E3,5.712647E2,2.213084E3,2.3591697E3,3.3716123E3,2.5088855E2,-1.2950947E3,-1.016163E3,4.7419224E3,-6.360326E2,-1.7092534E3,-1.6789689E3,-9.7152405E2,4.2142587E2,2.474838E3,1.7801292E3,2.7246326E3,2.7996733E3,-3.222842E2,3.0686426E3,3.7862773E3,3.4670944E2,-1.4463323E3,-1.0914773E3,-1.9916857E3,-6.5009454E2,-1.429756E3,-7.552993E2,5.0030273E3,-7.208623E2,1.2362771E2,-2.0127598E3,8.247325E2,-1.7693157E3,-1.2544838E3,-8.8739246E2,-1.7616644E3,1.9092523E2,1.1344181E3,2.946203E3,1.3597628E3,2.0150884E3,1.359753E3,3.1570408E3,1.2072228E3,4.1731836E2,2.6758533E3,-6.6437274E2,4.35712E2,3.3575544E3,2.2402998E3,2.4471361E2,3.0709968E3,2.7377522E1,-1.1989603E1,-1.8965488E1,-9.3263214E1,-4.6031586E1,-9.691205E1,-1.02159E2,-5.9477053E0,-3.516601E1,6.428908E1,-7.629462E1,-3.0967955E1,-1.1198725E1,-4.5448727E1,5.069519E2,2.197382E2,-3.7680843E1,5.0966583E1,1.2376732E1,-6.8850365E1,-1.1502222E2,-7.291659E1,2.2380212E2,-3.9951206E1,-9.0399345E1,-3.420216E1,-6.880746E1,8.123413E1,-5.646817E1,-2.6893894E1,-6.970956E1,-1.087087E2,1.7350552E1,-1.0749587E1,4.0048687E1,9.208376E1,1.1745066E2,1.8638264E2,5.1289135E1,1.797523E2,1.0921201E2,5.2966625E1,2.8509748E1,1.0529787E2,1.4067154E2,1.9063452E2,1.3791533E1,8.589447E1,1.26840454E2,2.3402449E2,-5.2151203E1,1.6493793E1,2.8880127E2,-4.7691517E1,1.5069958E2,2.2881206E2,9.6803986E1,1.3638676E2,9.79146E1,1.9267575E2],"categories":[],"categories_nodes":[],"categories_segments":[],"categories_sizes":[],"default_left":[0,0,0,0,0,0,0,0,0,0,0,0,0,0,0,0,0,0,0,0,0,0,0,0,0,0,0,0,0,0,0,0,0,0,0,0,0,0,0,0,0,0,0,0,0,0,0,0,0,0,0,0,0,0,0,0,0,0,0,0,0,0,0,0,0,0,0,0,0,0,0,0,0,0,0,0,0,0,0,0,0,0,0,0,0,0,0,0,0,0,0,0,0,0,0,0,0,0,0,0,0,0,0,0,0,0,0,0,0,0,0,0,0,0,0,0,0,0,0,0,0,0,0],"id":0,"left_children":[1,3,5,7,9,11,13,15,17,19,21,23,25,27,29,31,33,35,37,39,41,43,45,47,49,51,53,55,57,59,61,63,65,67,69,71,73,75,77,79,81,83,85,87,89,91,93,95,97,99,101,103,105,107,109,-1,111,113,115,117,119,-1,121,-1,-1,-1,-1,-1,-1,-1,-1,-1,-1,-1,-1,-1,-1,-1,-1,-1,-1,-1,-1,-1,-1,-1,-1,-1,-1,-1,-1,-1,-1,-1,-1,-1,-1,-1,-1,-1,-1,-1,-1,-1,-1,-1,-1,-1,-1,-1,-1,-1,-1,-1,-1,-1,-1,-1,-1,-1,-1,-1,-1],"loss_changes":[7.017952E9,3.7524465E9,1.8995092E9,2.6726943E9,6.975483E8,1.8428846E9,1.0719283E8,3.2307128E9,1.532264E9,1.8293926E8,1.6903885E8,1.02777894E9,1.8207693E8,2.1942234E8,2.5065216E7,2.5014134E9,2.0802995E8,4.3208397E8,7.124045E7,1.496585E8,1.3317286E8,5.384909E7,2.8151392E7,5.49518E8,1.342286E8,4.2694656E7,2.4880282E8,8.68663E7,7.290624E6,3.411955E7,7.928051E7,1.714852E9,3.6673472E8,1.644366E8,3.1966208E7,1.5741958E8,1.0360806E8,4.136725E4,9.602355E7,1.1978253E8,4.3850604E7,2.1048704E7,1.1622439E8,4.9252096E7,9.331248E7,3.372893E7,3.335408E6,1.6030666E8,1.9119872E8,7.711181E7,5.603547E7,4.505472E7,9.778003E7,5.663437E7,4.090603E7,0E0,3.1887488E7,7.497066E6,7.229467E7,3.9381504E7,1.836688E6,0E0,5.775712E7,0E0,0E0,0E0,0E0,0E0,0E0,0E0,0E0,0E0,0E0,0E0,0E0,0E0,0E0,0E0,0E0,0E0,0E0,0E0,0E0,0E0,0E0,0E0,0E0,0E0,0E0,0E0,0E0,0E0,0E0,0E0,0E0,0E0,0E0,0E0,0E0,0E0,0E0,0E0,0E0,0E0,0E0,0E0,0E0,0E0,0E0,0E0,0E0,0E0,0E0,0E0,0E0,0E0,0E0,0E0,0E0,0E0,0E0,0E0,0E0],"parents":[2147483647,0,0,1,1,2,2,3,3,4,4,5,5,6,6,7,7,8,8,9,9,10,10,11,11,12,12,13,13,14,14,15,15,16,16,17,17,18,18,19,19,20,20,21,21,22,22,23,23,24,24,25,25,26,26,27,27,28,28,29,29,30,30,31,31,32,32,33,33,34,34,35,35,36,36,37,37,38,38,39,39,40,40,41,41,42,42,43,43,44,44,45,45,46,46,47,47,48,48,49,49,50,50,51,51,52,52,53,53,54,54,56,56,57,57,58,58,59,59,60,60,62,62],"right_children":[2,4,6,8,10,12,14,16,18,20,22,24,26,28,30,32,34,36,38,40,42,44,46,48,50,52,54,56,58,60,62,64,66,68,70,72,74,76,78,80,82,84,86,88,90,92,94,96,98,100,102,104,106,108,110,-1,112,114,116,118,120,-1,122,-1,-1,-1,-1,-1,-1,-1,-1,-1,-1,-1,-1,-1,-1,-1,-1,-1,-1,-1,-1,-1,-1,-1,-1,-1,-1,-1,-1,-1,-1,-1,-1,-1,-1,-1,-1,-1,-1,-1,-1,-1,-1,-1,-1,-1,-1,-1,-1,-1,-1,-1,-1,-1,-1,-1,-1,-1,-1,-1,-1],"split_conditions":[1E0,1E0,1E0,1E0,1E0,1E0,6.17E1,1E0,1E0,1E0,1E0,1E0,6.21E1,6.15E1,6.28E1,1E0,1E0,1E0,5.87E1,6.36E1,6.3E1,1E0,6.27E1,1E0,6.26E1,1E0,6.37E1,5.78E1,1E0,6.25E1,6.33E1,1E0,1E0,1E0,6.35E1,6.48E1,1E0,5.81E1,5.92E1,1E0,6.59E1,1E0,6.33E1,1E0,6.26E1,6.19E1,6.29E1,1E0,1E0,1E0,1E0,6.17E1,6.15E1,1E0,6.4E1,4.1731836E2,6.14E1,6.16E1,6.16E1,6.23E1,1E0,2.4471361E2,6.38E1,2.7377522E1,-1.1989603E1,-1.8965488E1,-9.3263214E1,-4.6031586E1,-9.691205E1,-1.02159E2,-5.9477053E0,-3.516601E1,6.428908E1,-7.629462E1,-3.0967955E1,-1.1198725E1,-4.5448727E1,5.069519E2,2.197382E2,-3.7680843E1,5.0966583E1,1.2376732E1,-6.8850365E1,-1.1502222E2,-7.291659E1,2.2380212E2,-3.9951206E1,-9.0399345E1,-3.420216E1,-6.880746E1,8.123413E1,-5.646817E1,-2.6893894E1,-6.970956E1,-1.087087E2,1.7350552E1,-1.0749587E1,4.0048687E1,9.208376E1,1.1745066E2,1.8638264E2,5.1289135E1,1.797523E2,1.0921201E2,5.2966625E1,2.8509748E1,1.0529787E2,1.4067154E2,1.9063452E2,1.3791533E1,8.589447E1,1.26840454E2,2.3402449E2,-5.2151203E1,1.6493793E1,2.8880127E2,-4.7691517E1,1.5069958E2,2.2881206E2,9.6803986E1,1.3638676E2,9.79146E1,1.9267575E2],"split_indices":[4,10,14,9,18,13,21,7,2,7,3,15,21,21,21,2,13,18,21,21,21,8,21,12,21,18,21,21,18,21,21,11,18,14,21,21,8,21,21,2,21,19,21,2,21,21,21,18,19,19,18,21,21,19,21,0,21,21,21,21,18,0,21,0,0,0,0,0,0,0,0,0,0,0,0,0,0,0,0,0,0,0,0,0,0,0,0,0,0,0,0,0,0,0,0,0,0,0,0,0,0,0,0,0,0,0,0,0,0,0,0,0,0,0,0,0,0,0,0,0,0,0,0],"split_type":[0,0,0,0,0,0,0,0,0,0,0,0,0,0,0,0,0,0,0,0,0,0,0,0,0,0,0,0,0,0,0,0,0,0,0,0,0,0,0,0,0,0,0,0,0,0,0,0,0,0,0,0,0,0,0,0,0,0,0,0,0,0,0,0,0,0,0,0,0,0,0,0,0,0,0,0,0,0,0,0,0,0,0,0,0,0,0,0,0,0,0,0,0,0,0,0,0,0,0,0,0,0,0,0,0,0,0,0,0,0,0,0,0,0,0,0,0,0,0,0,0,0,0],"sum_hessian":[2.9084E4,2.416E4,4.924E3,1.9763E4,4.397E3,4.449E3,4.75E2,1.6858E4,2.905E3,2.49E3,1.907E3,3.606E3,8.43E2,1.84E2,2.91E2,1.5377E4,1.481E3,2.859E3,4.6E1,2.32E3,1.7E2,1.461E3,4.46E2,3.344E3,2.62E2,4.59E2,3.84E2,1.58E2,2.6E1,1.73E2,1.18E2,1.4556E4,8.21E2,1.148E3,3.33E2,1.518E3,1.341E3,2E0,4.4E1,2.087E3,2.33E2,1.52E2,1.8E1,1.202E3,2.59E2,4.05E2,4.1E1,2.528E3,8.16E2,1.83E2,7.9E1,2.92E2,1.67E2,2.98E2,8.6E1,2E0,1.56E2,1.8E1,8E0,1.26E2,4.7E1,4.4E1,7.4E1,1.0843E4,3.713E3,2.32E2,5.89E2,9.57E2,1.91E2,3.24E2,9E0,1.478E3,4E1,1.198E3,1.43E2,1E0,1E0,3E0,4.1E1,2.049E3,3.8E1,2.16E2,1.7E1,9.8E1,5.4E1,5E0,1.3E1,1.16E3,4.2E1,2.49E2,1E1,2.38E2,1.67E2,2.4E1,1.7E1,1.826E3,7.02E2,5.56E2,2.6E2,1.06E2,7.7E1,7E1,9E0,2.47E2,4.5E1,8.2E1,8.5E1,1.99E2,9.9E1,3.1E1,5.5E1,1.48E2,8E0,1.3E1,5E0,1E0,7E0,1.01E2,2.5E1,3.2E1,1.5E1,3.2E1,4.2E1],"tree_param":{"num_deleted":"0","num_feature":"23","num_nodes":"123","size_leaf_vector":"1"}},{"base_weights":[2.212033E0,-2.304386E3,4.2061587E3,-2.8962805E3,-9.2835187E2,2.203935E3,8.304289E3,-3.1536465E3,-2.2832808E3,-1.2979993E3,-7.8546906E1,2.7474558E3,6.2520703E2,6.916942E3,1.0863684E4,-3.230334E3,-2.9755164E3,-2.2244575E3,-1.4059785E2,-1.4565917E3,-1.0471252E3,-3.1657309E1,-9.121102E1,3.4860771E3,1.4170104E3,3.0986935E2,1.5255012E3,7.529967E3,4.613121E3,1.1207907E4,4.5170728E3,-3.2529822E3,-1.4822687E2,-3.0152017E3,-1.3422658E2,-2.1114287E3,-2.5294104E3,-1.4332097E3,-2.7157937E3,-9.5122144E2,-1.5683573E3,1.7230646E2,-5.204456E2,3.693488E3,-6.398552E2,1.0968265E3,2.421048E3,1.7614822E2,6.0137585E2,1.2430398E3,2.0663145E3,7.7890156E3,1.33079E3,4.2140537E3,6.327441E3,1.1554451E4,9.7466045E3,3.1133235E3,3.3342218E2,-1.6431267E2,-1.536583E2,-1.5186766E2,-1.3115733E2,-9.9238945E1,-1.13731285E2,-1.30309E2,-1.1423419E2,-6.7470566E1,-8.991085E1,-1.3740215E2,-3.4033142E1,-3.9583645E1,-6.393057E1,-1.2283697E2,-7.5291595E1,1.2095321E1,-4.4513077E1,-5.324592E1,-2.2560186E1,2.3157378E2,1.2964438E2,-5.4501392E1,-1.2479759E1,5.0261593E1,8.798414E1,1.3133067E2,5.9884686E1,1.1091149E1,-2.9741043E1,2.1670738E1,4.38728E1,6.7272514E1,1.775269E1,9.18114E1,1.3262968E2,4.132691E2,2.1817271E2,2.6502447E1,1.09329765E2,2.1842085E2,1.055978E2,3.2327374E2,1.7047072E2,6.199948E2,5.4640393E2,4.531896E2,5.569603E2,1.62358E2,5.4850258E1],"categories":[],"categories_nodes":[],"categories_segments":[],"categories_sizes":[],"default_left":[0,0,0,0,0,0,0,0,0,0,0,0,0,0,0,0,0,0,0,0,0,0,0,0,0,0,0,0,0,0,0,0,0,0,0,0,0,0,0,0,0,0,0,0,0,0,0,0,0,0,0,0,0,0,0,0,0,0,0,0,0,0,0,0,0,0,0,0,0,0,0,0,0,0,0,0,0,0,0,0,0,0,0,0,0,0,0,0,0,0,0,0,0,0,0,0,0,0,0,0,0,0,0,0,0,0,0,0,0],"id":1,"left_children":[1,3,5,7,9,11,13,15,17,19,21,23,25,27,29,31,33,35,-1,37,39,41,-1,43,45,47,49,51,53,55,57,59,-1,61,-1,63,65,67,69,71,73,75,77,79,81,83,85,87,89,91,93,95,97,99,101,103,105,107,-1,-1,-1,-1,-1,-1,-1,-1,-1,-1,-1,-1,-1,-1,-1,-1,-1,-1,-1,-1,-1,-1,-1,-1,-1,-1,-1,-1,-1,-1,-1,-1,-1,-1,-1,-1,-1,-1,-1,-1,-1,-1,-1,-1,-1,-1,-1,-1,-1,-1,-1],"loss_changes":[2.8322457E11,1.5358165E10,8.4890894E10,2.073256E9,1.7822612E9,5.964454E9,1.198329E10,1.1721933E8,1.1512013E8,1.5579136E8,1.4081286E8,5.0775613E9,5.0543117E8,3.079381E9,2.5534792E9,2.9356032E7,2.432E7,1.1588403E8,0E0,6.735872E7,7.524006E7,1.6727837E8,0E0,2.8477727E9,5.914332E8,5.138741E7,6.800614E7,2.7838792E9,2.9214003E8,4.5963674E8,1.6949811E8,2.5563136E7,0E0,1.34144E7,0E0,4.864512E7,1.1819008E7,7.030938E7,9.51648E5,6.684032E7,9.465088E6,8.777772E7,1.8143456E7,3.2564142E9,2.7837436E7,8.341325E7,1.090135E8,3.2070892E7,1.8863552E7,2.7349696E7,1.6307776E7,2.6890732E9,4.749575E7,1.1440333E8,1.2596224E7,3.4534195E8,1.1108352E8,7.232128E6,0E0,0E0,0E0,0E0,0E0,0E0,0E0,0E0,0E0,0E0,0E0,0E0,0E0,0E0,0E0,0E0,0E0,0E0,0E0,0E0,0E0,0E0,0E0,0E0,0E0,0E0,0E0,0E0,0E0,0E0,0E0,0E0,0E0,0E0,0E0,0E0,0E0,0E0,0E0,0E0,0E0,0E0,0E0,0E0,0E0,0E0,0E0,0E0,0E0,0E0,0E0],"parents":[2147483647,0,0,1,1,2,2,3,3,4,4,5,5,6,6,7,7,8,8,9,9,10,10,11,11,12,12,13,13,14,14,15,15,16,16,17,17,19,19,20,20,21,21,23,23,24,24,25,25,26,26,27,27,28,28,29,29,30,30,31,31,33,33,35,35,36,36,37,37,38,38,39,39,40,40,41,41,42,42,43,43,44,44,45,45,46,46,47,47,48,48,49,49,50,50,51,51,52,52,53,53,54,54,55,55,56,56,57,57],"right_children":[2,4,6,8,10,12,14,16,18,20,22,24,26,28,30,32,34,36,-1,38,40,42,-1,44,46,48,50,52,54,56,58,60,-1,62,-1,64,66,68,70,72,74,76,78,80,82,84,86,88,90,92,94,96,98,100,102,104,106,108,-1,-1,-1,-1,-1,-1,-1,-1,-1,-1,-1,-1,-1,-1,-1,-1,-1,-1,-1,-1,-1,-1,-1,-1,-1,-1,-1,-1,-1,-1,-1,-1,-1,-1,-1,-1,-1,-1,-1,-1,-1,-1,-1,-1,-1,-1,-1,-1,-1,-1,-1],"split_conditions":[1E0,6.1E-1,1.5E0,4.6E-1,8.3E-1,1E0,2E0,3.8E-1,1E0,1E0,1E0,1E0,1.19E0,1E0,1E0,1E0,1E0,1E0,-1.4059785E2,1E0,1E0,1E0,-9.121102E1,1E0,1.2E0,1.07E0,1.28E0,1E0,1.7E0,1E0,2.38E0,1E0,-1.4822687E2,1E0,-1.3422658E2,1E0,1E0,1E0,8.1E-1,1E0,7E-1,1E0,9E-1,1E0,1.09E0,1E0,1E0,1E0,1E0,1E0,1.38E0,1E0,1.53E0,1E0,1E0,1E0,2.23E0,1E0,3.3342218E2,-1.6431267E2,-1.536583E2,-1.5186766E2,-1.3115733E2,-9.9238945E1,-1.13731285E2,-1.30309E2,-1.1423419E2,-6.7470566E1,-8.991085E1,-1.3740215E2,-3.4033142E1,-3.9583645E1,-6.393057E1,-1.2283697E2,-7.5291595E1,1.2095321E1,-4.4513077E1,-5.324592E1,-2.2560186E1,2.3157378E2,1.2964438E2,-5.4501392E1,-1.2479759E1,5.0261593E1,8.798414E1,1.3133067E2,5.9884686E1,1.1091149E1,-2.9741043E1,2.1670738E1,4.38728E1,6.7272514E1,1.775269E1,9.18114E1,1.3262968E2,4.132691E2,2.1817271E2,2.6502447E1,1.09329765E2,2.1842085E2,1.055978E2,3.2327374E2,1.7047072E2,6.199948E2,5.4640393E2,4.531896E2,5.569603E2,1.62358E2,5.4850258E1],"split_indices":[0,0,0,0,0,4,0,0,4,18,1,3,0,4,1,2,7,3,0,1,4,4,0,1,0,0,0,1,0,15,0,7,0,2,0,6,9,4,0,3,0,15,0,6,0,9,15,15,18,15,0,15,0,15,15,4,0,15,0,0,0,0,0,0,0,0,0,0,0,0,0,0,0,0,0,0,0,0,0,0,0,0,0,0,0,0,0,0,0,0,0,0,0,0,0,0,0,0,0,0,0,0,0,0,0,0,0,0,0],"split_type":[0,0,0,0,0,0,0,0,0,0,0,0,0,0,0,0,0,0,0,0,0,0,0,0,0,0,0,0,0,0,0,0,0,0,0,0,0,0,0,0,0,0,0,0,0,0,0,0,0,0,0,0,0,0,0,0,0,0,0,0,0,0,0,0,0,0,0,0,0,0,0,0,0,0,0,0,0,0,0,0,0,0,0,0,0,0,0,0,0,0,0,0,0,0,0,0,0,0,0,0,0,0,0,0,0,0,0,0,0],"sum_hessian":[2.9206E4,1.8859E4,1.0347E4,1.3186E4,5.673E3,6.952E3,3.395E3,9.284E3,3.902E3,3.953E3,1.72E3,5.171E3,1.781E3,2.204E3,1.191E3,6.478E3,2.806E3,3.516E3,3.86E2,2.419E3,1.534E3,1.676E3,4.4E1,3.324E3,1.847E3,1.32E3,4.61E2,1.739E3,4.65E2,1.129E3,6.2E1,5.959E3,5.19E2,2.461E3,3.45E2,2.571E3,9.45E2,2.377E3,4.2E1,1.298E3,2.36E2,1.183E3,4.93E2,3.165E3,1.59E2,1.402E3,4.45E2,9.06E2,4.14E2,3.05E2,1.56E2,1.669E3,7E1,3.8E2,8.5E1,9.07E2,2.22E2,3.9E1,2.3E1,5.014E3,9.45E2,2.323E3,1.38E2,1.455E3,1.116E3,7.12E2,2.33E2,1.937E3,4.4E2,4.1E1,1E0,8.75E2,4.23E2,1.3E1,2.23E2,1.111E3,7.2E1,5.4E1,4.39E2,1.707E3,1.458E3,7.3E1,8.6E1,1.234E3,1.68E2,3.8E2,6.5E1,8.56E2,5E1,2.59E2,1.55E2,2.73E2,3.2E1,1.15E2,4.1E1,1.464E3,2.05E2,3.7E1,3.3E1,3.53E2,2.7E1,8E1,5E0,3.78E2,5.29E2,1.54E2,6.8E1,3.6E1,3E0],"tree_param":{"num_deleted":"0","num_feature":"23","num_nodes":"109","size_leaf_vector":"1"}},{"base_weights":[-3.9812887E0,-2.1878757E3,3.9787385E3,-2.7525413E3,-8.7707556E2,2.0893157E3,7.8450815E3,-2.995228E3,-2.1734788E3,-1.2061901E3,1.0068109E1,1.9635804E3,6.0481333E3,6.572757E3,1.025459E4,-3.0667412E3,-2.8296997E3,-2.2109065E3,-1.6291425E3,-1.3625708E3,-9.420668E2,5.1299843E1,-8.077976E1,1.8708888E3,6.963467E3,4.7992783E3,7.173886E3,6.929154E3,3.7992292E3,1.0582397E4,4.5241064E3,-3.0888064E3,-1.407789E2,-2.8676648E3,-1.2782763E2,-2.2324968E3,-1.4331401E3,-1.7161875E3,-7.998174E2,-1.406499E3,-5.9950287E2,-8.8932043E2,-8.863787E1,1.1902234E2,-5.491837E2,1.4545886E3,2.9180725E3,6.2588267E3,5.620264E2,5.0663276E3,2.0809229E3,7.412434E3,1.3024527E2,7.110164E3,1.3486438E3,3.4995068E3,5.018876E3,1.0904035E4,9.208135E3,2.9856875E3,6.7169014E3,-1.5598064E2,-1.4594066E2,-1.4440161E2,-1.2434414E2,-1.08413956E2,-1.2036432E2,-7.929657E1,-1.3843279E1,-8.130117E1,-1.0927401E2,-7.155709E1,-2.4595049E1,-9.007324E1,-6.6929405E1,-3.828782E1,4.0225334E0,-5.3041393E1,-3.3577362E1,8.60083E0,-3.910269E1,-2.4286839E1,-4.718234E1,5.968213E1,1.0116487E2,1.582422E2,5.55209E1,2.7868784E2,4.259243E2,2.615246E2,5.490558E1,2.5390905E1,1.09372574E2,3.788973E2,6.9006584E1,3.7735287E2,2.6834085E2,2.6147919E1,1.1197329E2,1.7828178E2,3.394478E1,2.5523055E2,2.4733595E1,5.508616E2,4.433984E2,4.2781876E2,5.3275824E2,1.8312518E2,1.0994625E2,3.4417438E2,6.3806286E1],"categories":[],"categories_nodes":[],"categories_segments":[],"categories_sizes":[],"default_left":[0,0,0,0,0,0,0,0,0,0,0,0,0,0,0,0,0,0,0,0,0,0,0,0,0,0,0,0,0,0,0,0,0,0,0,0,0,0,0,0,0,0,0,0,0,0,0,0,0,0,0,0,0,0,0,0,0,0,0,0,0,0,0,0,0,0,0,0,0,0,0,0,0,0,0,0,0,0,0,0,0,0,0,0,0,0,0,0,0,0,0,0,0,0,0,0,0,0,0,0,0,0,0,0,0,0,0,0,0,0,0],"id":2,"left_children":[1,3,5,7,9,11,13,15,17,19,21,23,25,27,29,31,33,35,37,39,41,43,-1,45,47,49,51,53,55,57,59,61,-1,63,-1,65,67,69,71,73,75,77,-1,79,81,83,85,87,-1,89,91,93,-1,95,97,99,101,103,105,107,109,-1,-1,-1,-1,-1,-1,-1,-1,-1,-1,-1,-1,-1,-1,-1,-1,-1,-1,-1,-1,-1,-1,-1,-1,-1,-1,-1,-1,-1,-1,-1,-1,-1,-1,-1,-1,-1,-1,-1,-1,-1,-1,-1,-1,-1,-1,-1,-1,-1,-1],"loss_changes":[2.5350724E11,1.3930422E10,7.538744E10,1.8423153E9,1.6552013E9,3.4401096E9,1.0319118E10,1.0104013E8,7.563059E7,1.6950733E8,1.0297227E8,3.1027261E9,2.6502707E8,2.1680947E9,2.1480899E9,2.7107328E7,2.1796864E7,5.7856E7,1.69632E7,8.614195E7,6.594355E7,6.09834E7,0E0,2.873852E9,2.9732966E8,6.4954624E7,1.005824E8,1.9763282E9,7.565338E7,3.8801408E8,1.9921894E8,2.1938176E7,0E0,1.1882496E7,0E0,3.446989E7,1.7404464E7,6.136128E6,4.350293E6,6.3384064E7,1.6226988E7,5.348211E7,0E0,6.445628E7,3.345816E6,6.989343E8,8.3377254E8,1.1815885E8,0E0,5.5491584E7,7.32564E5,9.337805E7,0E0,1.4096876E9,4.516779E7,3.6376064E7,1.6093184E7,1.074217E8,1.1254374E8,1.3246176E7,1.4781056E7,0E0,0E0,0E0,0E0,0E0,0E0,0E0,0E0,0E0,0E0,0E0,0E0,0E0,0E0,0E0,0E0,0E0,0E0,0E0,0E0,0E0,0E0,0E0,0E0,0E0,0E0,0E0,0E0,0E0,0E0,0E0,0E0,0E0,0E0,0E0,0E0,0E0,0E0,0E0,0E0,0E0,0E0,0E0,0E0,0E0,0E0,0E0,0E0,0E0,0E0],"parents":[2147483647,0,0,1,1,2,2,3,3,4,4,5,5,6,6,7,7,8,8,9,9,10,10,11,11,12,12,13,13,14,14,15,15,16,16,17,17,18,18,19,19,20,20,21,21,23,23,24,24,25,25,26,26,27,27,28,28,29,29,30,30,31,31,33,33,35,35,36,36,37,37,38,38,39,39,40,40,41,41,43,43,44,44,45,45,46,46,47,47,49,49,50,50,51,51,53,53,54,54,55,55,56,56,57,57,58,58,59,59,60,60],"right_children":[2,4,6,8,10,12,14,16,18,20,22,24,26,28,30,32,34,36,38,40,42,44,-1,46,48,50,52,54,56,58,60,62,-1,64,-1,66,68,70,72,74,76,78,-1,80,82,84,86,88,-1,90,92,94,-1,96,98,100,102,104,106,108,110,-1,-1,-1,-1,-1,-1,-1,-1,-1,-1,-1,-1,-1,-1,-1,-1,-1,-1,-1,-1,-1,-1,-1,-1,-1,-1,-1,-1,-1,-1,-1,-1,-1,-1,-1,-1,-1,-1,-1,-1,-1,-1,-1,-1,-1,-1,-1,-1,-1,-1],"split_conditions":[1E0,6.1E-1,1.5E0,4.6E-1,9E-1,1E0,2E0,3.8E-1,1E0,7.3E-1,1E0,1E0,1.11E0,1E0,1E0,1E0,1E0,1E0,1E0,1E0,1E0,1E0,-8.077976E1,1.19E0,1E0,1E0,1E0,1E0,1.7E0,1E0,2.38E0,1E0,-1.407789E2,1E0,-1.2782763E2,1E0,1E0,1E0,5.2E-1,7E-1,1E0,1E0,-8.863787E1,1E0,6.38E1,1E0,1E0,1.24E0,5.620264E2,1E0,6.05E1,1E0,1.3024527E2,1E0,1.53E0,1E0,1E0,1E0,2.23E0,1E0,6.72E1,-1.5598064E2,-1.4594066E2,-1.4440161E2,-1.2434414E2,-1.08413956E2,-1.2036432E2,-7.929657E1,-1.3843279E1,-8.130117E1,-1.0927401E2,-7.155709E1,-2.4595049E1,-9.007324E1,-6.6929405E1,-3.828782E1,4.0225334E0,-5.3041393E1,-3.3577362E1,8.60083E0,-3.910269E1,-2.4286839E1,-4.718234E1,5.968213E1,1.0116487E2,1.582422E2,5.55209E1,2.7868784E2,4.259243E2,2.615246E2,5.490558E1,2.5390905E1,1.09372574E2,3.788973E2,6.9006584E1,3.7735287E2,2.6834085E2,2.6147919E1,1.1197329E2,1.7828178E2,3.394478E1,2.5523055E2,2.4733595E1,5.508616E2,4.433984E2,4.2781876E2,5.3275824E2,1.8312518E2,1.0994625E2,3.4417438E2,6.3806286E1],"split_indices":[0,0,0,0,0,7,0,0,7,0,1,2,0,15,1,2,7,2,9,7,15,14,0,0,9,13,14,1,0,15,0,7,0,2,0,3,9,14,0,0,11,18,0,15,21,18,15,0,0,14,21,15,0,14,0,1,1,16,0,16,21,0,0,0,0,0,0,0,0,0,0,0,0,0,0,0,0,0,0,0,0,0,0,0,0,0,0,0,0,0,0,0,0,0,0,0,0,0,0,0,0,0,0,0,0,0,0,0,0,0,0],"split_type":[0,0,0,0,0,0,0,0,0,0,0,0,0,0,0,0,0,0,0,0,0,0,0,0,0,0,0,0,0,0,0,0,0,0,0,0,0,0,0,0,0,0,0,0,0,0,0,0,0,0,0,0,0,0,0,0,0,0,0,0,0,0,0,0,0,0,0,0,0,0,0,0,0,0,0,0,0,0,0,0,0,0,0,0,0,0,0,0,0,0,0,0,0,0,0,0,0,0,0,0,0,0,0,0,0,0,0,0,0,0,0],"sum_hessian":[2.9144E4,1.8823E4,1.0321E4,1.3155E4,5.668E3,6.934E3,3.387E3,9.267E3,3.888E3,4.134E3,1.534E3,6.722E3,2.12E2,2.219E3,1.168E3,6.459E3,2.808E3,3.635E3,2.53E2,2.594E3,1.54E3,1.497E3,3.7E1,6.601E3,1.21E2,1.03E2,1.09E2,1.965E3,2.54E2,1.104E3,6.4E1,5.927E3,5.32E2,2.457E3,3.51E2,3.535E3,1E2,2.28E2,2.5E1,2.452E3,1.42E2,1.45E3,9E1,1.346E3,1.51E2,4.725E3,1.876E3,1.06E2,1.5E1,9.3E1,1E1,1.03E2,6E0,1.903E3,6.2E1,2.07E2,4.7E1,8.89E2,2.15E2,3.9E1,2.5E1,5.003E3,9.24E2,2.326E3,1.31E2,2.595E3,9.4E2,8.8E1,1.2E1,1.95E2,3.3E1,7E0,1.8E1,3.56E2,2.096E3,1.14E2,2.8E1,8.09E2,6.41E2,1.272E3,7.4E1,1.32E2,1.9E1,3.241E3,1.484E3,1.65E3,2.26E2,8.4E1,2.2E1,8.9E1,4E0,1E0,9E0,1E2,3E0,1.519E3,3.84E2,3.3E1,2.9E1,2.02E2,5E0,4.6E1,1E0,8.38E2,5.1E1,1.53E2,6.2E1,1.9E1,2E1,2.4E1,1E0],"tree_param":{"num_deleted":"0","num_feature":"23","num_nodes":"111","size_leaf_vector":"1"}},{"base_weights":[-1.1666695E1,-2.0805364E3,3.7712095E3,-2.615623E3,-8.3956165E2,1.983464E3,7.464369E3,-2.8386453E3,-2.0418248E3,-1.1462147E3,-1.9356493E1,2.488998E3,5.0237955E2,6.2388125E3,9.766931E3,-2.9160994E3,-2.672571E3,-1.9853931E3,-1.27315025E2,-1.4149565E3,-1.0013578E3,1.5091417E2,-4.3363876E2,3.1706025E3,1.2589138E3,2.2192894E2,1.2957985E3,6.8216235E3,4.0161082E3,1.0024889E4,6.538512E3,-2.9366238E3,-1.3403052E2,-2.709131E3,-1.2052334E2,-1.8760228E3,-2.2713186E3,-1.4555796E3,-7.404058E2,-8.927421E2,-1.4271912E3,2.1489604E2,-7.611463E2,-3.849236E2,-1.0375564E3,3.8217834E3,2.367595E3,9.6439154E2,2.1565435E3,8.970212E1,5.0964984E2,1.1026785E3,1.9400654E3,7.237036E3,3.8957837E3,3.6298008E3,5.454E3,1.0334061E4,8.723716E3,5.72974E3,7.622624E3,-1.4834349E2,-1.387191E2,-1.3643047E2,-1.1706321E2,-8.7518166E1,-1.0165084E2,-1.1732302E2,-1.07987366E2,-6.955408E1,-9.071249E1,-2.9689743E1,-6.2249523E1,-4.142672E1,-8.889358E1,-7.678014E1,-5.660962E1,1.5883931E1,-2.2927477E1,-3.448321E1,-5.4742523E1,-2.293586E1,-2.3408432E0,-5.3227932E1,-4.337213E0,1.6942297E2,2.6368024E2,9.437972E1,1.5143031E2,5.203208E1,1.8561958E1,9.817137E1,1.722269E2,7.2572556E0,-3.1666239E1,2.8348337E1,2.969295E-1,5.9698162E1,1.5247336E1,1.0343748E2,4.3512188E1,3.866923E2,2.6719586E2,1.7593118E2,2.4880367E2,1.8837599E2,9.2130974E1,2.8097296E2,1.4761E2,5.012858E2,5.59821E2,4.0398947E2,5.0177472E2,2.3852425E2,4.230957E2,3.202072E2,4.849466E2],"categories":[],"categories_nodes":[],"categories_segments":[],"categories_sizes":[],"default_left":[0,0,0,0,0,0,0,0,0,0,0,0,0,0,0,0,0,0,0,0,0,0,0,0,0,0,0,0,0,0,0,0,0,0,0,0,0,0,0,0,0,0,0,0,0,0,0,0,0,0,0,0,0,0,0,0,0,0,0,0,0,0,0,0,0,0,0,0,0,0,0,0,0,0,0,0,0,0,0,0,0,0,0,0,0,0,0,0,0,0,0,0,0,0,0,0,0,0,0,0,0,0,0,0,0,0,0,0,0,0,0,0,0,0,0,0,0],"id":3,"left_children":[1,3,5,7,9,11,13,15,17,19,21,23,25,27,29,31,33,35,-1,37,39,41,43,45,47,49,51,53,55,57,59,61,-1,63,-1,65,67,69,71,73,75,77,79,81,83,85,87,89,91,93,95,97,99,101,103,105,107,109,111,113,115,-1,-1,-1,-1,-1,-1,-1,-1,-1,-1,-1,-1,-1,-1,-1,-1,-1,-1,-1,-1,-1,-1,-1,-1,-1,-1,-1,-1,-1,-1,-1,-1,-1,-1,-1,-1,-1,-1,-1,-1,-1,-1,-1,-1,-1,-1,-1,-1,-1,-1,-1,-1,-1,-1,-1,-1],"loss_changes":[2.2778385E11,1.2491506E10,6.7924197E10,1.6764928E9,1.4260874E9,5.191254E9,9.40943E9,1.1394253E8,9.979392E7,1.5924378E8,1.0897938E8,4.3306947E9,3.9267363E8,2.813444E9,9.0382336E8,2.3269376E7,2.2427648E7,9.946829E7,0E0,3.846349E7,1.2291302E8,6.4062664E7,1.2839592E7,1.7301299E9,4.8568653E8,4.9640304E7,5.521875E7,2.0818002E9,2.3460762E8,3.4271232E8,3.435955E7,2.0799488E7,0E0,1.2556288E7,0E0,4.388659E7,2.586112E6,2.8937984E7,5.474848E6,1.2026163E8,1.5659264E7,7.102538E7,9.624E5,1.0407664E7,7.54892E5,1.1365458E9,4.676731E8,6.252557E7,1.0641024E8,3.6009676E7,1.186268E7,2.5632896E7,1.2654944E7,1.3873234E9,7.131341E7,8.264909E7,2.2735104E7,1.1748147E8,9.883341E7,1.0377946E8,2.6434688E7,0E0,0E0,0E0,0E0,0E0,0E0,0E0,0E0,0E0,0E0,0E0,0E0,0E0,0E0,0E0,0E0,0E0,0E0,0E0,0E0,0E0,0E0,0E0,0E0,0E0,0E0,0E0,0E0,0E0,0E0,0E0,0E0,0E0,0E0,0E0,0E0,0E0,0E0,0E0,0E0,0E0,0E0,0E0,0E0,0E0,0E0,0E0,0E0,0E0,0E0,0E0,0E0,0E0,0E0,0E0,0E0],"parents":[2147483647,0,0,1,1,2,2,3,3,4,4,5,5,6,6,7,7,8,8,9,9,10,10,11,11,12,12,13,13,14,14,15,15,16,16,17,17,19,19,20,20,21,21,22,22,23,23,24,24,25,25,26,26,27,27,28,28,29,29,30,30,31,31,33,33,35,35,36,36,37,37,38,38,39,39,40,40,41,41,42,42,43,43,44,44,45,45,46,46,47,47,48,48,49,49,50,50,51,51,52,52,53,53,54,54,55,55,56,56,57,57,58,58,59,59,60,60],"right_children":[2,4,6,8,10,12,14,16,18,20,22,24,26,28,30,32,34,36,-1,38,40,42,44,46,48,50,52,54,56,58,60,62,-1,64,-1,66,68,70,72,74,76,78,80,82,84,86,88,90,92,94,96,98,100,102,104,106,108,110,112,114,116,-1,-1,-1,-1,-1,-1,-1,-1,-1,-1,-1,-1,-1,-1,-1,-1,-1,-1,-1,-1,-1,-1,-1,-1,-1,-1,-1,-1,-1,-1,-1,-1,-1,-1,-1,-1,-1,-1,-1,-1,-1,-1,-1,-1,-1,-1,-1,-1,-1,-1,-1,-1,-1,-1,-1,-1],"split_conditions":[1E0,6.1E-1,1.5E0,5E-1,9E-1,1E0,2E0,3.8E-1,1E0,7.1E-1,1E0,1E0,1.19E0,1E0,1E0,1E0,1E0,1E0,-1.27315025E2,1E0,1E0,1E0,1E0,1E0,1.2E0,1.07E0,1.32E0,1E0,1.66E0,1E0,1E0,1E0,-1.3403052E2,1E0,-1.2052334E2,1E0,5.4E-1,1E0,1E0,1E0,8E-1,1E0,1E0,1E0,9.8E-1,1.22E0,1.1E0,1E0,1.34E0,1E0,1E0,1E0,1E0,1E0,1.66E0,1E0,1E0,1E0,2.23E0,1E0,2.05E0,-1.4834349E2,-1.387191E2,-1.3643047E2,-1.1706321E2,-8.7518166E1,-1.0165084E2,-1.1732302E2,-1.07987366E2,-6.955408E1,-9.071249E1,-2.9689743E1,-6.2249523E1,-4.142672E1,-8.889358E1,-7.678014E1,-5.660962E1,1.5883931E1,-2.2927477E1,-3.448321E1,-5.4742523E1,-2.293586E1,-2.3408432E0,-5.3227932E1,-4.337213E0,1.6942297E2,2.6368024E2,9.437972E1,1.5143031E2,5.203208E1,1.8561958E1,9.817137E1,1.722269E2,7.2572556E0,-3.1666239E1,2.8348337E1,2.969295E-1,5.9698162E1,1.5247336E1,1.0343748E2,4.3512188E1,3.866923E2,2.6719586E2,1.7593118E2,2.4880367E2,1.8837599E2,9.2130974E1,2.8097296E2,1.4761E2,5.012858E2,5.59821E2,4.0398947E2,5.0177472E2,2.3852425E2,4.230957E2,3.202072E2,4.849466E2],"split_indices":[0,0,0,0,0,4,0,0,4,0,4,3,0,4,16,2,7,3,0,7,4,15,14,6,0,0,0,15,0,15,4,7,0,2,0,6,0,4,14,15,0,14,16,18,0,0,0,14,0,16,14,15,15,14,0,15,15,3,0,3,0,0,0,0,0,0,0,0,0,0,0,0,0,0,0,0,0,0,0,0,0,0,0,0,0,0,0,0,0,0,0,0,0,0,0,0,0,0,0,0,0,0,0,0,0,0,0,0,0,0,0,0,0,0,0,0,0],"split_type":[0,0,0,0,0,0,0,0,0,0,0,0,0,0,0,0,0,0,0,0,0,0,0,0,0,0,0,0,0,0,0,0,0,0,0,0,0,0,0,0,0,0,0,0,0,0,0,0,0,0,0,0,0,0,0,0,0,0,0,0,0,0,0,0,0,0,0,0,0,0,0,0,0,0,0,0,0,0,0,0,0,0,0,0,0,0,0,0,0,0,0,0,0,0,0,0,0,0,0,0,0,0,0,0,0,0,0,0,0,0,0,0,0,0,0,0,0],"sum_hessian":[2.9103E4,1.8814E4,1.0289E4,1.3145E4,5.669E3,6.934E3,3.355E3,9.463E3,3.682E3,4.126E3,1.543E3,5.169E3,1.765E3,2.192E3,1.163E3,6.442E3,3.021E3,3.316E3,3.66E2,1.442E3,2.684E3,1.094E3,4.49E2,3.325E3,1.844E3,1.305E3,4.6E2,1.735E3,4.57E2,1.075E3,8.8E1,5.915E3,5.27E2,2.643E3,3.78E2,2.404E3,9.12E2,1.359E3,8.3E1,2.141E3,5.43E2,1.023E3,7.1E1,4.17E2,3.2E1,1.834E3,1.491E3,1.39E3,4.54E2,8.95E2,4.1E2,3.56E2,1.04E2,1.518E3,2.17E2,3.63E2,9.4E1,8.63E2,2.12E2,5.4E1,3.4E1,4.971E3,9.44E2,2.504E3,1.39E2,1.342E3,1.062E3,5.33E2,3.79E2,1.156E3,2.03E2,6.6E1,1.7E1,1.998E3,1.43E2,3.94E2,1.49E2,8.88E2,1.35E2,6.1E1,1E1,3.42E2,7.5E1,3.1E1,1E0,1.415E3,4.19E2,8.66E2,6.25E2,1.231E3,1.59E2,3.97E2,5.7E1,8.32E2,6.3E1,3.68E2,4.2E1,3.19E2,3.7E1,9.2E1,1.2E1,1.2E3,3.18E2,1.64E2,5.3E1,3.36E2,2.7E1,8.7E1,7E0,6.45E2,2.18E2,1.47E2,6.5E1,4.2E1,1.2E1,2.4E1,1E1],"tree_param":{"num_deleted":"0","num_feature":"23","num_nodes":"117","size_leaf_vector":"1"}},{"base_weights":[6.187144E0,-5.3561847E2,3.2791544E2,-6.704334E2,3.2933392E2,1.4313936E2,1.1211034E3,-7.157962E2,4.172827E2,5.4039233E2,-9.10818E2,2.2159395E2,-9.1833234E2,9.138348E2,2.1034158E3,-6.689532E2,-1.4329553E3,1.682646E2,1.131796E3,-7.7911804E1,6.6389056E2,9.677158E2,-9.793493E2,1.5275815E2,1.2624059E3,-9.565299E2,7.773753E2,8.2689984E2,2.0136815E3,1.6593256E3,2.6977368E3,-5.968572E2,-1.2389316E3,-1.5423744E3,2.322145E3,1.0610878E3,-1.1782206E1,8.7416705E2,2.7292317E3,5.32903E3,-2.0940837E2,5.8138184E2,2.5221252E3,-9.884728E2,4.557521E3,-1.0526221E3,7.414678E2,2.4080478E2,-4.5526608E2,3.945828E2,1.5443412E3,-1.0773506E3,-6.2385974E2,-7.09263E2,2.4636409E3,9.542202E2,2.9017587E2,2.385128E3,4.425427E2,1.8410347E3,5.2037354E2,2.1391653E3,3.8294849E3,-2.5400736E1,-5.65591E1,1.6456096E2,-6.404937E1,-8.5377235E1,-3.1016504E1,2.5832138E2,6.3417736E1,2.4341328E2,4.3624557E1,5.7460102E1,-1.0069481E1,2.5112478E1,1.0698284E2,4.7109295E1,4.1859946E2,3.4800497E2,9.6080864E1,-3.818685E1,2.7560917E1,3.5737053E1,-3.3304485E1,1.353602E2,-4.5484215E1,-1.023162E1,-6.646175E1,3.0950372E2,3.2310364E1,-5.756973E1,1.6388617E1,1.7436913E2,-2.706384E1,1.5514383E1,-1.6223248E1,-2.6981237E1,2.1189876E2,4.0191174E1,-2.1184599E1,9.191847E1,2.8512339E1,-5.436444E1,1.541924E2,-8.070784E0,-5.3575783E1,-1.1288997E2,7.3683136E1,1.7952629E2,-8.691133E1,2.8558628E1,5.2246613E1,2.7271626E1,-6.289148E0,3.0002506E1,1.2592976E2,1.0107457E1,1.307823E2,7.396051E1,1.1754433E2,1.7180303E0,4.1351818E1,1.1068324E2,1.629533E1,2.0850969E2,1.273871E2],"categories":[],"categories_nodes":[],"categories_segments":[],"categories_sizes":[],"default_left":[0,0,0,0,0,0,0,0,0,0,0,0,0,0,0,0,0,0,0,0,0,0,0,0,0,0,0,0,0,0,0,0,0,0,0,0,0,0,0,0,0,0,0,0,0,0,0,0,0,0,0,0,0,0,0,0,0,0,0,0,0,0,0,0,0,0,0,0,0,0,0,0,0,0,0,0,0,0,0,0,0,0,0,0,0,0,0,0,0,0,0,0,0,0,0,0,0,0,0,0,0,0,0,0,0,0,0,0,0,0,0,0,0,0,0,0,0,0,0,0,0,0,0,0,0,0,0],"id":4,"left_children":[1,3,5,7,9,11,13,15,17,19,21,23,25,27,29,31,33,35,37,39,41,43,45,47,49,51,53,55,57,59,61,63,65,67,69,71,73,75,77,79,81,83,85,87,89,91,93,95,97,99,101,103,105,107,109,111,113,115,117,119,121,123,125,-1,-1,-1,-1,-1,-1,-1,-1,-1,-1,-1,-1,-1,-1,-1,-1,-1,-1,-1,-1,-1,-1,-1,-1,-1,-1,-1,-1,-1,-1,-1,-1,-1,-1,-1,-1,-1,-1,-1,-1,-1,-1,-1,-1,-1,-1,-1,-1,-1,-1,-1,-1,-1,-1,-1,-1,-1,-1,-1,-1,-1,-1,-1,-1],"loss_changes":[5.070278E9,1.2639068E9,2.6745994E9,4.629284E8,3.8316262E8,1.232958E9,7.000996E8,3.0142003E8,6.6710012E7,9.550109E7,2.8369008E7,9.8743526E8,6.674611E7,2.7074227E8,1.5388262E8,3.46539E8,2.2997645E8,4.5022492E7,3.753413E7,1.4971374E8,1.5829373E8,6.068367E7,2.6754816E7,6.9236416E8,2.0858342E8,3.940077E7,5.940531E7,1.802665E8,1.203321E8,7.064941E7,1.5300954E8,3.556457E8,1.8482803E8,8.057062E7,4.140357E7,2.9499464E7,5.174214E7,3.8931268E7,1.2320229E8,1.4413968E7,8.68566E7,1.6667152E8,3.0409504E7,1.3306145E6,1.5156216E7,2.737368E7,3.358841E7,4.4376883E8,6.5000474E8,7.099841E7,1.8368678E8,3.35424E7,5.530728E7,4.7271656E7,5.8326364E7,7.35881E7,5.400614E7,3.8514496E7,2.088965E7,5.1496704E7,7.274648E6,2.2648576E7,2.5621632E7,0E0,0E0,0E0,0E0,0E0,0E0,0E0,0E0,0E0,0E0,0E0,0E0,0E0,0E0,0E0,0E0,0E0,0E0,0E0,0E0,0E0,0E0,0E0,0E0,0E0,0E0,0E0,0E0,0E0,0E0,0E0,0E0,0E0,0E0,0E0,0E0,0E0,0E0,0E0,0E0,0E0,0E0,0E0,0E0,0E0,0E0,0E0,0E0,0E0,0E0,0E0,0E0,0E0,0E0,0E0,0E0,0E0,0E0,0E0,0E0,0E0,0E0,0E0,0E0],"parents":[2147483647,0,0,1,1,2,2,3,3,4,4,5,5,6,6,7,7,8,8,9,9,10,10,11,11,12,12,13,13,14,14,15,15,16,16,17,17,18,18,19,19,20,20,21,21,22,22,23,23,24,24,25,25,26,26,27,27,28,28,29,29,30,30,31,31,32,32,33,33,34,34,35,35,36,36,37,37,38,38,39,39,40,40,41,41,42,42,43,43,44,44,45,45,46,46,47,47,48,48,49,49,50,50,51,51,52,52,53,53,54,54,55,55,56,56,57,57,58,58,59,59,60,60,61,61,62,62],"right_children":[2,4,6,8,10,12,14,16,18,20,22,24,26,28,30,32,34,36,38,40,42,44,46,48,50,52,54,56,58,60,62,64,66,68,70,72,74,76,78,80,82,84,86,88,90,92,94,96,98,100,102,104,106,108,110,112,114,116,118,120,122,124,126,-1,-1,-1,-1,-1,-1,-1,-1,-1,-1,-1,-1,-1,-1,-1,-1,-1,-1,-1,-1,-1,-1,-1,-1,-1,-1,-1,-1,-1,-1,-1,-1,-1,-1,-1,-1,-1,-1,-1,-1,-1,-1,-1,-1,-1,-1,-1,-1,-1,-1,-1,-1,-1,-1,-1,-1,-1,-1,-1,-1,-1,-1,-1,-1],"split_conditions":[5.7E1,1E0,1E0,1E0,1E0,1E0,1E0,1E0,6.26E1,5.46E1,6.02E1,1E0,1E0,1E0,1E0,1E0,1E0,6.08E1,1E0,6.02E1,6.46E1,5.99E1,6.44E1,1E0,5.79E1,1E0,1E0,1E0,6.29E1,6.37E1,6.21E1,1E0,6E1,6.23E1,5.41E1,5.85E1,5.41E1,1E0,6.28E1,1E0,6.25E1,6.35E1,6.94E1,5.9E1,1E0,1E0,6.47E1,1E0,1E0,6.26E1,6.01E1,6.8E1,6.15E1,5.91E1,6.25E1,6.01E1,6.21E1,5.88E1,6.12E1,6.22E1,6.42E1,6.12E1,5.91E1,-2.5400736E1,-5.65591E1,1.6456096E2,-6.404937E1,-8.5377235E1,-3.1016504E1,2.5832138E2,6.3417736E1,2.4341328E2,4.3624557E1,5.7460102E1,-1.0069481E1,2.5112478E1,1.0698284E2,4.7109295E1,4.1859946E2,3.4800497E2,9.6080864E1,-3.818685E1,2.7560917E1,3.5737053E1,-3.3304485E1,1.353602E2,-4.5484215E1,-1.023162E1,-6.646175E1,3.0950372E2,3.2310364E1,-5.756973E1,1.6388617E1,1.7436913E2,-2.706384E1,1.5514383E1,-1.6223248E1,-2.6981237E1,2.1189876E2,4.0191174E1,-2.1184599E1,9.191847E1,2.8512339E1,-5.436444E1,1.541924E2,-8.070784E0,-5.3575783E1,-1.1288997E2,7.3683136E1,1.7952629E2,-8.691133E1,2.8558628E1,5.2246613E1,2.7271626E1,-6.289148E0,3.0002506E1,1.2592976E2,1.0107457E1,1.307823E2,7.396051E1,1.1754433E2,1.7180303E0,4.1351818E1,1.1068324E2,1.629533E1,2.0850969E2,1.273871E2],"split_indices":[22,4,4,19,9,7,13,2,21,22,21,15,15,15,19,7,9,21,9,21,21,21,21,9,22,12,19,9,21,21,21,9,21,21,22,21,22,13,21,20,21,21,21,21,18,19,21,8,2,21,22,22,21,22,21,21,21,21,22,21,21,22,22,0,0,0,0,0,0,0,0,0,0,0,0,0,0,0,0,0,0,0,0,0,0,0,0,0,0,0,0,0,0,0,0,0,0,0,0,0,0,0,0,0,0,0,0,0,0,0,0,0,0,0,0,0,0,0,0,0,0,0,0,0,0,0,0],"split_type":[0,0,0,0,0,0,0,0,0,0,0,0,0,0,0,0,0,0,0,0,0,0,0,0,0,0,0,0,0,0,0,0,0,0,0,0,0,0,0,0,0,0,0,0,0,0,0,0,0,0,0,0,0,0,0,0,0,0,0,0,0,0,0,0,0,0,0,0,0,0,0,0,0,0,0,0,0,0,0,0,0,0,0,0,0,0,0,0,0,0,0,0,0,0,0,0,0,0,0,0,0,0,0,0,0,0,0,0,0,0,0,0,0,0,0,0,0,0,0,0,0,0,0,0,0,0,0],"sum_hessian":[2.9085E4,1.0836E4,1.8249E4,9.375E3,1.461E3,1.4802E4,3.447E3,9E3,3.75E2,1.249E3,2.12E2,1.3784E4,1.018E3,2.848E3,5.99E2,8.45E3,5.5E2,2.79E2,9.6E1,2.08E2,1.041E3,7E0,2.05E2,1.293E4,8.54E2,9.96E2,2.2E1,2.641E3,2.07E2,3.45E2,2.54E2,7.503E3,9.47E2,5.35E2,1.5E1,4.6E1,2.33E2,8.4E1,1.2E1,4E0,2.04E2,9.98E2,4.3E1,5E0,2E0,1.97E2,8E0,1.1295E4,1.635E3,2.1E2,6.44E2,7.29E2,2.67E2,1.2E1,1E1,2.134E3,5.07E2,1.67E2,4E1,2.97E2,4.8E1,1.72E2,8.2E1,6.435E3,1.068E3,8E0,9.39E2,4.53E2,8.2E1,3E0,1.2E1,1E0,4.5E1,3.2E1,2.01E2,6.6E1,1.8E1,1E1,2E0,2E0,2E0,1.18E2,8.6E1,9.02E2,9.6E1,4.1E1,2E0,2E0,3E0,1E0,1E0,1.84E2,1.3E1,2E0,6E0,1.0059E4,1.236E3,1.607E3,2.8E1,1.4E2,7E1,4.94E2,1.5E2,7.28E2,1E0,1.32E2,1.35E2,7E0,5E0,8E0,2E0,4.1E2,1.724E3,3.14E2,1.93E2,1.2E1,1.55E2,3.7E1,3E0,1.76E2,1.21E2,1.9E1,2.9E1,1.65E2,7E0,6.3E1,1.9E1],"tree_param":{"num_deleted":"0","num_feature":"23","num_nodes":"127","size_leaf_vector":"1"}},{"base_weights":[-2.4163282E0,-1.9672028E3,3.568803E3,-2.451564E3,-7.570136E2,1.8259557E3,6.9618325E3,-2.6793562E3,-1.9088119E3,-1.0523456E3,-1.0945538E1,2.3211304E3,3.9009384E2,5.809949E3,9.286337E3,-2.752477E3,-2.523018E3,-1.8507843E3,-1.2162742E2,-9.623319E2,-1.457318E3,1.6070451E2,-4.40242E2,2.9700752E3,1.1450917E3,1.3304576E2,1.027615E3,6.388302E3,3.667809E3,9.598745E3,3.856565E3,-2.7740906E3,-1.2509391E2,-2.5645706E3,-2.2289258E3,-1.742915E3,-2.1410554E3,-9.098064E2,-1.769824E3,-1.5788138E3,-1.2086176E3,2.1966602E2,-7.640128E1,-3.941478E2,-5.2622425E1,3.1692334E3,-9.358067E2,9.022017E2,1.8432239E3,1.7515494E2,-6.275733E2,7.251917E2,1.2387003E3,6.612139E3,8.397608E2,3.1723003E3,4.801894E3,9.903311E3,8.276308E3,2.4798643E3,5.960092E3,-1.4044984E2,-1.2894441E2,-1.2931378E2,-1.09008255E2,-1.1315987E2,-8.9842964E1,-8.0318535E1,-9.6005714E1,-1.1109631E2,-9.432449E1,-5.5302376E1,-3.4551052E1,-9.066216E1,-6.951691E1,-8.146491E1,-6.551207E1,-6.3112698E1,-3.844634E1,1.40448065E1,-3.4463478E1,-1.5037585E1,-3.375286E1,1.9965697E2,1.1060888E2,-6.512704E1,-3.252922E1,4.06181E1,7.794787E1,1.00941765E2,3.9155487E1,1.0584758E1,-3.4892353E1,-3.8213833E1,-1.5971336E1,3.1406967E1,6.667994E1,6.7912834E1,3.677139E1,3.5088998E2,1.820244E2,1.2632354E1,7.52892E1,1.6430315E2,7.3794235E1,2.4987178E2,1.1708644E2,5.394158E2,4.625798E2,3.9458664E2,5.215488E2,1.2997417E2,3.6176014E1,3.0568118E2,5.6883045E1],"categories":[],"categories_nodes":[],"categories_segments":[],"categories_sizes":[],"default_left":[0,0,0,0,0,0,0,0,0,0,0,0,0,0,0,0,0,0,0,0,0,0,0,0,0,0,0,0,0,0,0,0,0,0,0,0,0,0,0,0,0,0,0,0,0,0,0,0,0,0,0,0,0,0,0,0,0,0,0,0,0,0,0,0,0,0,0,0,0,0,0,0,0,0,0,0,0,0,0,0,0,0,0,0,0,0,0,0,0,0,0,0,0,0,0,0,0,0,0,0,0,0,0,0,0,0,0,0,0,0,0,0,0,0,0],"id":5,"left_children":[1,3,5,7,9,11,13,15,17,19,21,23,25,27,29,31,33,35,-1,37,39,41,43,45,47,49,51,53,55,57,59,61,-1,63,65,67,69,71,73,75,77,79,-1,81,-1,83,85,87,89,91,93,95,97,99,101,103,105,107,109,111,113,-1,-1,-1,-1,-1,-1,-1,-1,-1,-1,-1,-1,-1,-1,-1,-1,-1,-1,-1,-1,-1,-1,-1,-1,-1,-1,-1,-1,-1,-1,-1,-1,-1,-1,-1,-1,-1,-1,-1,-1,-1,-1,-1,-1,-1,-1,-1,-1,-1,-1,-1,-1,-1,-1],"loss_changes":[2.0497839E11,1.1044487E10,6.129881E10,1.6587571E9,1.1871683E9,4.8701727E9,9.365684E9,1.0139238E8,1.1651584E8,1.3930624E8,1.12740856E8,3.8842593E9,2.8795302E8,2.894209E9,1.9374899E9,2.797568E7,3.13344E7,1.0864333E8,0E0,1.3246029E8,1.9243008E7,1.09165736E8,1.1916968E7,2.555994E9,3.057659E8,4.0274336E7,3.1339456E7,2.2958162E9,2.6742682E8,3.610706E8,1.7345498E8,3.3124352E7,0E0,1.6472064E7,1.604608E6,6.035661E7,1.5736832E7,1.2675174E8,6.4256E5,4.19712E6,4.547904E6,5.90201E7,0E0,1.0501188E7,0E0,2.4537272E9,1.5888704E7,7.82103E7,8.535949E7,3.8076468E7,2.536098E6,1.1562248E7,1.6811264E7,2.1214167E9,2.8164864E7,6.3275264E7,6.093824E7,4.1294234E8,9.335194E7,6.73296E6,1.1554752E7,0E0,0E0,0E0,0E0,0E0,0E0,0E0,0E0,0E0,0E0,0E0,0E0,0E0,0E0,0E0,0E0,0E0,0E0,0E0,0E0,0E0,0E0,0E0,0E0,0E0,0E0,0E0,0E0,0E0,0E0,0E0,0E0,0E0,0E0,0E0,0E0,0E0,0E0,0E0,0E0,0E0,0E0,0E0,0E0,0E0,0E0,0E0,0E0,0E0,0E0,0E0,0E0,0E0,0E0],"parents":[2147483647,0,0,1,1,2,2,3,3,4,4,5,5,6,6,7,7,8,8,9,9,10,10,11,11,12,12,13,13,14,14,15,15,16,16,17,17,19,19,20,20,21,21,22,22,23,23,24,24,25,25,26,26,27,27,28,28,29,29,30,30,31,31,33,33,34,34,35,35,36,36,37,37,38,38,39,39,40,40,41,41,43,43,45,45,46,46,47,47,48,48,49,49,50,50,51,51,52,52,53,53,54,54,55,55,56,56,57,57,58,58,59,59,60,60],"right_children":[2,4,6,8,10,12,14,16,18,20,22,24,26,28,30,32,34,36,-1,38,40,42,44,46,48,50,52,54,56,58,60,62,-1,64,66,68,70,72,74,76,78,80,-1,82,-1,84,86,88,90,92,94,96,98,100,102,104,106,108,110,112,114,-1,-1,-1,-1,-1,-1,-1,-1,-1,-1,-1,-1,-1,-1,-1,-1,-1,-1,-1,-1,-1,-1,-1,-1,-1,-1,-1,-1,-1,-1,-1,-1,-1,-1,-1,-1,-1,-1,-1,-1,-1,-1,-1,-1,-1,-1,-1,-1,-1,-1,-1,-1,-1,-1],"split_conditions":[1E0,6.5E-1,1.38E0,5E-1,9E-1,1E0,2E0,3.8E-1,1E0,1E0,1E0,1E0,1.16E0,1E0,1E0,1E0,1E0,1E0,-1.2162742E2,1E0,7.6E-1,1E0,1E0,1E0,1.17E0,1E0,1.22E0,1E0,1.59E0,1E0,2.38E0,1E0,-1.2509391E2,1E0,1E0,1E0,1E0,7.2E-1,8.1E-1,1E0,8.5E-1,1E0,-7.640128E1,6.3E1,-5.2622425E1,1E0,1.06E0,1E0,1E0,6.49E1,1.06E0,1E0,1E0,1E0,1.53E0,1E0,1E0,1E0,2.38E0,1E0,6.72E1,-1.4044984E2,-1.2894441E2,-1.2931378E2,-1.09008255E2,-1.1315987E2,-8.9842964E1,-8.0318535E1,-9.6005714E1,-1.1109631E2,-9.432449E1,-5.5302376E1,-3.4551052E1,-9.066216E1,-6.951691E1,-8.146491E1,-6.551207E1,-6.3112698E1,-3.844634E1,1.40448065E1,-3.4463478E1,-1.5037585E1,-3.375286E1,1.9965697E2,1.1060888E2,-6.512704E1,-3.252922E1,4.06181E1,7.794787E1,1.00941765E2,3.9155487E1,1.0584758E1,-3.4892353E1,-3.8213833E1,-1.5971336E1,3.1406967E1,6.667994E1,6.7912834E1,3.677139E1,3.5088998E2,1.820244E2,1.2632354E1,7.52892E1,1.6430315E2,7.3794235E1,2.4987178E2,1.1708644E2,5.394158E2,4.625798E2,3.9458664E2,5.215488E2,1.2997417E2,3.6176014E1,3.0568118E2,5.6883045E1],"split_indices":[0,0,0,0,0,4,0,0,4,4,4,3,0,4,1,2,7,3,0,15,0,1,14,1,0,15,0,1,0,15,0,7,0,2,9,6,9,0,0,9,0,15,0,21,0,6,0,9,15,21,0,9,14,15,0,15,15,4,0,15,21,0,0,0,0,0,0,0,0,0,0,0,0,0,0,0,0,0,0,0,0,0,0,0,0,0,0,0,0,0,0,0,0,0,0,0,0,0,0,0,0,0,0,0,0,0,0,0,0,0,0,0,0,0,0],"split_type":[0,0,0,0,0,0,0,0,0,0,0,0,0,0,0,0,0,0,0,0,0,0,0,0,0,0,0,0,0,0,0,0,0,0,0,0,0,0,0,0,0,0,0,0,0,0,0,0,0,0,0,0,0,0,0,0,0,0,0,0,0,0,0,0,0,0,0,0,0,0,0,0,0,0,0,0,0,0,0,0,0,0,0,0,0,0,0,0,0,0,0,0,0,0,0,0,0,0,0,0,0,0,0,0,0,0,0,0,0,0,0,0,0,0,0],"sum_hessian":[2.9211E4,1.8844E4,1.0367E4,1.3457E4,5.387E3,6.85E3,3.517E3,9.476E3,3.981E3,3.859E3,1.528E3,5.093E3,1.757E3,2.354E3,1.163E3,6.445E3,3.031E3,3.588E3,3.93E2,3.16E3,6.99E2,1.092E3,4.36E2,3.281E3,1.812E3,1.253E3,5.04E2,1.852E3,5.02E2,1.099E3,6.4E1,5.924E3,5.21E2,2.649E3,3.82E2,2.621E3,9.67E2,2.969E3,1.91E2,4.66E2,2.33E2,1.056E3,3.6E1,4.07E2,2.9E1,3.122E3,1.59E2,1.346E3,4.66E2,1.188E3,6.5E1,2.09E2,2.95E2,1.78E3,7.2E1,3.52E2,1.5E2,8.88E2,2.11E2,4E1,2.4E1,5.014E3,9.1E2,2.502E3,1.47E2,3.5E2,3.2E1,1.486E3,1.135E3,7.28E2,2.39E2,1.563E3,1.406E3,1.68E2,2.3E1,3.88E2,7.8E1,2.06E2,2.7E1,9.9E2,6.6E1,3.07E2,1E2,1.676E3,1.446E3,6.8E1,9.1E1,1.186E3,1.6E2,3.99E2,6.7E1,1.141E3,4.7E1,4.4E1,2.1E1,1.82E2,2.7E1,2.37E2,5.8E1,1.565E3,2.15E2,3.9E1,3.3E1,3.29E2,2.3E1,1.38E2,1.2E1,3.7E2,5.18E2,1.83E2,2.8E1,3.7E1,3E0,2.3E1,1E0],"tree_param":{"num_deleted":"0","num_feature":"23","num_nodes":"115","size_leaf_vector":"1"}},{"base_weights":[-5.8554304E-1,-1.590541E2,7.739573E2,-2.3334942E1,-7.711319E2,6.255588E2,2.1582188E3,5.0549374E1,-8.444235E2,-5.395879E2,-1.0796932E3,4.028481E2,1.5597485E3,1.1303269E2,8.79226E1,1.6753328E2,-6.1344006E2,-6.7659357E2,-1.4970797E3,-4.856597E2,-1.2421672E3,-1.2182704E3,-3.1335913E1,3.013239E2,1.6461582E3,1.7183842E3,5.8540962E1,2.3835648E2,-1.0762079E3,-6.844175E2,3.713994E3,-5.4941345E2,-1.4167014E3,-1.6509614E3,-6.817481E1,-4.1830054E2,-1.0595349E3,-1.1920756E3,-7.505227E1,-1.2478577E3,-1.2660132E1,1.2862074E2,8.283005E2,1.8010669E3,5.9960033E1,1.8432937E3,7.309892E1,7.3681E0,3.8255795E1,-1.6836435E1,-6.83608E1,-2.2481606E1,-4.775826E1,2.1890779E2,1.139038E2,-2.9971796E1,-9.470187E0,-7.578465E1,-6.461757E1,-9.028595E1,-7.010906E1,-2.2122517E1,3.5626263E1,-3.5666756E1,-6.358656E1,-4.9319775E1,-6.5643364E1,-6.677125E1,-4.266886E1,1.6883591E0,1.5307401E1,4.9520706E1,2.6346582E1,9.8098076E1,4.6369457E1,9.6626945E1,7.570559E1],"categories":[],"categories_nodes":[],"categories_segments":[],"categories_sizes":[],"default_left":[0,0,0,0,0,0,0,0,0,0,0,0,0,0,0,0,0,0,0,0,0,0,0,0,0,0,0,0,0,0,0,0,0,0,0,0,0,0,0,0,0,0,0,0,0,0,0,0,0,0,0,0,0,0,0,0,0,0,0,0,0,0,0,0,0,0,0,0,0,0,0,0,0,0,0,0,0],"id":6,"left_children":[1,3,5,7,9,11,13,15,17,19,21,23,25,-1,-1,27,29,31,33,35,37,39,-1,41,43,45,-1,47,49,51,53,55,57,59,-1,61,63,65,-1,67,-1,69,71,73,-1,75,-1,-1,-1,-1,-1,-1,-1,-1,-1,-1,-1,-1,-1,-1,-1,-1,-1,-1,-1,-1,-1,-1,-1,-1,-1,-1,-1,-1,-1,-1,-1],"loss_changes":[3.5706493E9,2.0061389E9,1.013642E9,1.1992796E9,3.125632E8,9.281247E8,1.5598848E7,1.4089138E9,1.777486E8,9.434618E7,1.171223E8,4.5467514E8,5.098675E7,0E0,0E0,1.3586264E9,8.3706886E8,1.2158682E8,4.594112E6,8.958598E7,5.1888E5,4.071552E7,0E0,3.0341357E8,1.6672768E7,1.6777984E7,0E0,6.992661E8,1.7836627E8,1.6955034E8,3.1988224E7,1.9893984E7,3.8E5,3.243136E6,0E0,5.728227E7,1.7017664E7,2.531024E6,0E0,4.70144E7,0E0,4.23063E7,3.968659E7,2.6294528E7,0E0,8.972032E6,0E0,0E0,0E0,0E0,0E0,0E0,0E0,0E0,0E0,0E0,0E0,0E0,0E0,0E0,0E0,0E0,0E0,0E0,0E0,0E0,0E0,0E0,0E0,0E0,0E0,0E0,0E0,0E0,0E0,0E0,0E0],"parents":[2147483647,0,0,1,1,2,2,3,3,4,4,5,5,6,6,7,7,8,8,9,9,10,10,11,11,12,12,15,15,16,16,17,17,18,18,19,19,20,20,21,21,23,23,24,24,25,25,27,27,28,28,29,29,30,30,31,31,32,32,33,33,35,35,36,36,37,37,39,39,41,41,42,42,43,43,45,45],"right_children":[2,4,6,8,10,12,14,16,18,20,22,24,26,-1,-1,28,30,32,34,36,38,40,-1,42,44,46,-1,48,50,52,54,56,58,60,-1,62,64,66,-1,68,-1,70,72,74,-1,76,-1,-1,-1,-1,-1,-1,-1,-1,-1,-1,-1,-1,-1,-1,-1,-1,-1,-1,-1,-1,-1,-1,-1,-1,-1,-1,-1,-1,-1,-1,-1],"split_conditions":[1E0,1E0,1E0,1E0,1E0,1E0,1E0,1E0,1E0,1E0,1E0,1E0,1E0,1.1303269E2,8.79226E1,1E0,1E0,1E0,1E0,1E0,1E0,1E0,-3.1335913E1,1E0,1E0,1E0,5.8540962E1,1E0,1E0,1E0,1E0,1E0,1E0,1E0,-6.817481E1,1E0,1E0,1E0,-7.505227E1,1E0,-1.2660132E1,1E0,1E0,1E0,5.9960033E1,1E0,7.309892E1,7.3681E0,3.8255795E1,-1.6836435E1,-6.83608E1,-2.2481606E1,-4.775826E1,2.1890779E2,1.139038E2,-2.9971796E1,-9.470187E0,-7.578465E1,-6.461757E1,-9.028595E1,-7.010906E1,-2.2122517E1,3.5626263E1,-3.5666756E1,-6.358656E1,-4.9319775E1,-6.5643364E1,-6.677125E1,-4.266886E1,1.6883591E0,1.5307401E1,4.9520706E1,2.6346582E1,9.8098076E1,4.6369457E1,9.6626945E1,7.570559E1],"split_indices":[4,10,14,7,18,13,20,9,13,7,3,15,18,0,0,2,2,14,18,8,17,2,0,12,20,20,0,14,18,18,18,9,18,20,0,2,20,20,0,8,0,11,18,17,0,17,0,0,0,0,0,0,0,0,0,0,0,0,0,0,0,0,0,0,0,0,0,0,0,0,0,0,0,0,0,0,0],"split_type":[0,0,0,0,0,0,0,0,0,0,0,0,0,0,0,0,0,0,0,0,0,0,0,0,0,0,0,0,0,0,0,0,0,0,0,0,0,0,0,0,0,0,0,0,0,0,0,0,0,0,0,0,0,0,0,0,0,0,0,0,0,0,0,0,0,0,0,0,0,0,0,0,0,0,0,0,0],"sum_hessian":[2.9089E4,2.4149E4,4.94E3,1.9767E4,4.382E3,4.463E3,4.77E2,1.8136E4,1.631E3,2.505E3,1.877E3,3.605E3,8.58E2,3.76E2,1.01E2,1.542E4,2.716E3,1.299E3,3.32E2,2.328E3,1.77E2,1.436E3,4.41E2,3.334E3,2.71E2,6.07E2,2.51E2,1.459E4,8.3E2,2.673E3,4.3E1,1.11E3,1.89E2,1.49E2,1.83E2,2.085E3,2.43E2,1.53E2,2.4E1,1.393E3,4.3E1,2.512E3,8.22E2,1.99E2,7.2E1,4.04E2,2.03E2,1.2442E4,2.148E3,2.35E2,5.95E2,1.433E3,1.24E3,2.8E1,1.5E1,9.74E2,1.36E2,9.9E1,9E1,8.8E1,6.1E1,2.042E3,4.3E1,9.4E1,1.49E2,6E1,9.3E1,1.138E3,2.55E2,1.638E3,8.74E2,5.33E2,2.89E2,1.67E2,3.2E1,3.14E2,9E1],"tree_param":{"num_deleted":"0","num_feature":"23","num_nodes":"77","size_leaf_vector":"1"}},{"base_weights":[3.365367E-2,-1.8562874E3,3.3866868E3,-2.3303315E3,-7.527034E2,1.7128662E3,6.6104883E3,-2.5298232E3,-1.824317E3,-1.0594667E3,-7.440662E1,2.1911045E3,3.249105E2,5.242647E3,8.338666E3,-2.6110227E3,-2.4135115E3,-1.7658037E3,-1.1691856E2,-9.6703235E2,-1.4893317E3,9.415503E1,-5.0916525E2,2.8154946E3,1.0710948E3,8.588912E1,9.239743E2,5.8091396E3,3.1481626E3,8.604789E3,3.4467546E3,-2.6460225E3,-2.41434E3,-2.452778E3,-2.1065088E3,-1.6657944E3,-2.0351912E3,-1.1309526E3,-7.2141925E2,-2.0886086E3,-1.4530393E3,1.5809814E2,-1.5758113E3,-5.865521E2,-1.5129048E2,2.9984937E3,-9.023577E2,8.329902E2,1.7041937E3,9.233808E0,5.714688E2,9.9841486E2,1.9000287E2,6.0089707E3,5.616139E2,3.2929167E3,1.3994128E3,7.178465E3,9.065224E3,2.2921946E3,2.922669E2,-1.338928E2,-1.1718673E2,-1.3069594E2,-1.1752654E2,-1.2110723E2,-1.3792046E2,-1.0675559E2,-8.755325E1,-8.557183E1,-6.099718E1,-1.0575557E2,-8.879595E1,-5.5164326E1,-1.2032208E2,-2.8421412E1,-5.1537178E1,-1.0736681E2,-3.5362537E1,-7.6915794E1,-6.4161644E1,1.1212485E1,-3.7779106E1,-8.3900276E1,-5.444059E1,-3.6180115E1,-2.1613039E1,8.446662E-1,-1.8872772E1,1.4308351E2,3.112168E2,-5.5470497E1,-1.9038948E1,3.707974E1,7.380291E1,9.3294426E1,3.5728886E1,-5.2854786E0,2.055091E1,2.3719183E1,4.8766193E1,3.5575344E1,6.0133358E1,-5.1576998E-2,2.8009827E1,3.2010233E2,1.5610863E2,1.2006055E1,5.8022213E1,1.3438585E2,1.818828E2,2.0177458E1,7.78599E1,3.907215E2,2.5122054E2,4.8464655E2,4.242623E2,1.201419E2,3.3046803E1],"categories":[],"categories_nodes":[],"categories_segments":[],"categories_sizes":[],"default_left":[0,0,0,0,0,0,0,0,0,0,0,0,0,0,0,0,0,0,0,0,0,0,0,0,0,0,0,0,0,0,0,0,0,0,0,0,0,0,0,0,0,0,0,0,0,0,0,0,0,0,0,0,0,0,0,0,0,0,0,0,0,0,0,0,0,0,0,0,0,0,0,0,0,0,0,0,0,0,0,0,0,0,0,0,0,0,0,0,0,0,0,0,0,0,0,0,0,0,0,0,0,0,0,0,0,0,0,0,0,0,0,0,0,0,0,0,0,0,0],"id":7,"left_children":[1,3,5,7,9,11,13,15,17,19,21,23,25,27,29,31,33,35,-1,37,39,41,43,45,47,49,51,53,55,57,59,61,63,65,67,69,71,73,75,77,79,81,83,85,87,89,91,93,95,97,99,101,103,105,107,109,111,113,115,117,-1,-1,-1,-1,-1,-1,-1,-1,-1,-1,-1,-1,-1,-1,-1,-1,-1,-1,-1,-1,-1,-1,-1,-1,-1,-1,-1,-1,-1,-1,-1,-1,-1,-1,-1,-1,-1,-1,-1,-1,-1,-1,-1,-1,-1,-1,-1,-1,-1,-1,-1,-1,-1,-1,-1,-1,-1,-1,-1],"loss_changes":[1.8331435E11,9.851724E9,5.5697654E10,1.3253427E9,1.1778422E9,4.5109555E9,8.296022E9,8.292352E7,1.0803507E8,1.5344384E8,1.2932026E8,3.5320607E9,2.4949914E8,2.3215063E9,1.9973243E9,3.1821824E7,4.180787E7,8.691712E7,0E0,1.2846157E8,1.1928448E7,1.3607693E8,1.3564808E7,2.2104863E9,2.715776E8,4.641088E7,2.6964992E7,1.6230318E9,1.0221619E8,9.0425754E8,2.1368467E8,3.897139E7,4.680704E6,2.5612288E7,8.2624E5,4.7768576E7,1.4955008E7,6.5238784E7,6.036723E7,1.482864E6,7.467264E6,7.427054E7,5.12088E5,8.2512E6,3.391694E6,1.3473464E9,1.610064E7,7.63689E7,7.77143E7,4.982814E7,6.202736E6,2.5573632E7,3.324405E6,1.6752968E9,1.0887492E7,7.138253E7,4.7141E6,4.607529E8,3.2258458E8,8.699712E6,0E0,0E0,0E0,0E0,0E0,0E0,0E0,0E0,0E0,0E0,0E0,0E0,0E0,0E0,0E0,0E0,0E0,0E0,0E0,0E0,0E0,0E0,0E0,0E0,0E0,0E0,0E0,0E0,0E0,0E0,0E0,0E0,0E0,0E0,0E0,0E0,0E0,0E0,0E0,0E0,0E0,0E0,0E0,0E0,0E0,0E0,0E0,0E0,0E0,0E0,0E0,0E0,0E0,0E0,0E0,0E0,0E0,0E0,0E0],"parents":[2147483647,0,0,1,1,2,2,3,3,4,4,5,5,6,6,7,7,8,8,9,9,10,10,11,11,12,12,13,13,14,14,15,15,16,16,17,17,19,19,20,20,21,21,22,22,23,23,24,24,25,25,26,26,27,27,28,28,29,29,30,30,31,31,32,32,33,33,34,34,35,35,36,36,37,37,38,38,39,39,40,40,41,41,42,42,43,43,44,44,45,45,46,46,47,47,48,48,49,49,50,50,51,51,52,52,53,53,54,54,55,55,56,56,57,57,58,58,59,59],"right_children":[2,4,6,8,10,12,14,16,18,20,22,24,26,28,30,32,34,36,-1,38,40,42,44,46,48,50,52,54,56,58,60,62,64,66,68,70,72,74,76,78,80,82,84,86,88,90,92,94,96,98,100,102,104,106,108,110,112,114,116,118,-1,-1,-1,-1,-1,-1,-1,-1,-1,-1,-1,-1,-1,-1,-1,-1,-1,-1,-1,-1,-1,-1,-1,-1,-1,-1,-1,-1,-1,-1,-1,-1,-1,-1,-1,-1,-1,-1,-1,-1,-1,-1,-1,-1,-1,-1,-1,-1,-1,-1,-1,-1,-1,-1,-1,-1,-1,-1,-1],"split_conditions":[1E0,6.1E-1,1.38E0,5E-1,8.3E-1,1E0,1.7E0,3.5E-1,1E0,1E0,1E0,1E0,1.16E0,1E0,1E0,1E0,1E0,1E0,-1.1691856E2,1E0,7E-1,1E0,1E0,1E0,1.15E0,1E0,1E0,1E0,1E0,2E0,2.38E0,1E0,3E-1,1E0,1E0,1E0,1E0,1E0,1E0,6.33E1,1E0,1E0,1E0,9.1E-1,5.91E1,1E0,1E0,1E0,1E0,1E0,1E0,1.22E0,1.26E0,1E0,1.53E0,1.51E0,1.46E0,1E0,1E0,1E0,2.922669E2,-1.338928E2,-1.1718673E2,-1.3069594E2,-1.1752654E2,-1.2110723E2,-1.3792046E2,-1.0675559E2,-8.755325E1,-8.557183E1,-6.099718E1,-1.0575557E2,-8.879595E1,-5.5164326E1,-1.2032208E2,-2.8421412E1,-5.1537178E1,-1.0736681E2,-3.5362537E1,-7.6915794E1,-6.4161644E1,1.1212485E1,-3.7779106E1,-8.3900276E1,-5.444059E1,-3.6180115E1,-2.1613039E1,8.446662E-1,-1.8872772E1,1.4308351E2,3.112168E2,-5.5470497E1,-1.9038948E1,3.707974E1,7.380291E1,9.3294426E1,3.5728886E1,-5.2854786E0,2.055091E1,2.3719183E1,4.8766193E1,3.5575344E1,6.0133358E1,-5.1576998E-2,2.8009827E1,3.2010233E2,1.5610863E2,1.2006055E1,5.8022213E1,1.3438585E2,1.818828E2,2.0177458E1,7.78599E1,3.907215E2,2.5122054E2,4.8464655E2,4.242623E2,1.201419E2,3.3046803E1],"split_indices":[0,0,0,0,0,4,0,0,4,4,4,3,0,4,1,7,7,3,0,18,0,1,9,1,0,9,15,1,15,0,0,2,0,4,9,7,9,1,3,22,18,15,18,0,22,2,18,9,15,10,18,0,0,15,0,0,0,4,4,15,0,0,0,0,0,0,0,0,0,0,0,0,0,0,0,0,0,0,0,0,0,0,0,0,0,0,0,0,0,0,0,0,0,0,0,0,0,0,0,0,0,0,0,0,0,0,0,0,0,0,0,0,0,0,0,0,0,0,0],"split_type":[0,0,0,0,0,0,0,0,0,0,0,0,0,0,0,0,0,0,0,0,0,0,0,0,0,0,0,0,0,0,0,0,0,0,0,0,0,0,0,0,0,0,0,0,0,0,0,0,0,0,0,0,0,0,0,0,0,0,0,0,0,0,0,0,0,0,0,0,0,0,0,0,0,0,0,0,0,0,0,0,0,0,0,0,0,0,0,0,0,0,0,0,0,0,0,0,0,0,0,0,0,0,0,0,0,0,0,0,0,0,0,0,0,0,0,0,0,0,0],"sum_hessian":[2.9157E4,1.8834E4,1.0323E4,1.3174E4,5.66E3,6.796E3,3.527E3,9.446E3,3.728E3,3.897E3,1.763E3,5.054E3,1.742E3,1.971E3,1.556E3,5.55E3,3.896E3,3.351E3,3.77E2,3.21E3,6.87E2,1.271E3,4.92E2,3.244E3,1.81E3,1.246E3,4.96E2,1.55E3,4.21E2,1.475E3,8.1E1,4.701E3,8.49E2,3.448E3,4.48E2,2.449E3,9.02E2,1.923E3,1.287E3,3.6E1,6.51E2,1.225E3,4.6E1,4.04E2,8.8E1,3.092E3,1.52E2,1.317E3,4.93E2,1.077E3,1.69E2,4.5E2,4.6E1,1.493E3,5.7E1,3.88E2,3.3E1,3.64E2,1.111E3,5.6E1,2.5E1,4.246E3,4.55E2,1.96E2,6.53E2,3.142E3,3.06E2,4.1E2,3.8E1,2.219E3,2.3E2,6.84E2,2.18E2,1.884E3,3.9E1,8.63E2,4.24E2,3.4E1,2E0,4.28E2,2.23E2,1.143E3,8.2E1,3.6E1,1E1,2.12E2,1.92E2,5.1E1,3.7E1,2.968E3,1.24E2,1.08E2,4.4E1,1.155E3,1.62E2,4.23E2,7E1,8.38E2,2.39E2,1.38E2,3.1E1,1.89E2,2.61E2,3.1E1,1.5E1,1.313E3,1.8E2,3.8E1,1.9E1,1.44E2,2.44E2,5E0,2.8E1,2.79E2,8.5E1,5.26E2,5.85E2,5.2E1,4E0],"tree_param":{"num_deleted":"0","num_feature":"23","num_nodes":"119","size_leaf_vector":"1"}},{"base_weights":[-1.120758E1,-1.7706478E3,3.2020996E3,-2.2009595E3,-6.8743195E2,1.6576317E3,6.3400186E3,-2.402928E3,-1.7155477E3,-9.496427E2,-2.0886456E1,2.1151775E3,3.4716983E2,5.249312E3,8.186257E3,-2.4712173E3,-2.272298E3,-1.6576344E3,-1.11102844E2,-1.1028353E3,-7.0046204E2,1.4646149E2,-4.3101288E2,1.8855311E3,4.3914614E3,1.1092047E2,1.0305111E3,5.740779E3,3.2906335E3,8.412526E3,5.47288E3,-2.5538228E3,-2.391614E3,-2.3117856E3,-1.9796199E3,-1.6821492E3,-8.8725665E2,-1.0199612E3,-1.4419406E3,-6.0446796E2,-1.1631088E3,2.9262747E2,-1.9977011E2,-3.83648E2,-1.0420201E3,1.7170669E3,5.393073E3,3.5670027E3,5.4358027E3,3.7501644E1,5.8669476E2,8.001549E2,1.4413969E3,6.0927603E3,3.1252827E3,2.9520276E3,4.126829E3,8.6747295E3,7.2746567E3,5.9716636E3,2.481036E3,-1.2926628E2,-1.1709267E2,-1.2113784E2,-1.0765993E2,-1.1670249E2,-9.628344E1,-1.0054525E2,-8.104382E1,-8.697274E1,-6.5560905E1,-5.0370815E1,5.2649293E0,-5.4229267E1,-2.5181692E1,-7.765565E1,-6.454032E1,-2.7489899E1,-7.600721E1,-6.330102E1,-4.245731E1,1.8553663E1,-1.8331861E1,-3.9447534E0,-3.410188E1,-1.5821563E1,-3.885141E1,-5.344519E1,-5.887732E0,8.018691E1,2.948263E2,2.1119368E2,3.2349445E2,1.8561336E2,-2.5423288E1,2.820262E2,6.562491E1,-3.1189914E0,1.9782888E1,2.3028103E1,5.196371E1,4.4789993E1,3.925012E-1,7.654642E1,2.8857916E1,3.3152676E2,2.0735388E2,1.3912718E2,1.7661548E2,1.5171599E2,4.9475925E1,2.144727E2,9.382403E1,4.595349E2,4.116472E2,3.1219296E2,4.0658572E2,9.642757E1,3.048032E2,9.2134445E1,3.01406E2],"categories":[],"categories_nodes":[],"categories_segments":[],"categories_sizes":[],"default_left":[0,0,0,0,0,0,0,0,0,0,0,0,0,0,0,0,0,0,0,0,0,0,0,0,0,0,0,0,0,0,0,0,0,0,0,0,0,0,0,0,0,0,0,0,0,0,0,0,0,0,0,0,0,0,0,0,0,0,0,0,0,0,0,0,0,0,0,0,0,0,0,0,0,0,0,0,0,0,0,0,0,0,0,0,0,0,0,0,0,0,0,0,0,0,0,0,0,0,0,0,0,0,0,0,0,0,0,0,0,0,0,0,0,0,0,0,0,0,0,0,0],"id":8,"left_children":[1,3,5,7,9,11,13,15,17,19,21,23,25,27,29,31,33,35,-1,37,39,41,43,45,47,49,51,53,55,57,59,61,63,65,67,69,71,73,75,77,79,81,83,85,87,89,91,93,95,97,99,101,103,105,107,109,111,113,115,117,119,-1,-1,-1,-1,-1,-1,-1,-1,-1,-1,-1,-1,-1,-1,-1,-1,-1,-1,-1,-1,-1,-1,-1,-1,-1,-1,-1,-1,-1,-1,-1,-1,-1,-1,-1,-1,-1,-1,-1,-1,-1,-1,-1,-1,-1,-1,-1,-1,-1,-1,-1,-1,-1,-1,-1,-1,-1,-1,-1,-1],"loss_changes":[1.6487093E11,8.782057E9,4.9994793E10,1.318015E9,9.366016E8,4.1460736E9,6.8096737E9,7.932314E7,1.1265331E8,1.4603955E8,1.0397472E8,2.6712842E9,2.8902285E8,2.043052E9,7.287685E8,3.493069E7,3.334144E7,6.5798144E7,0E0,6.54144E7,6.4448384E7,5.4511896E7,1.2305024E7,2.7431311E9,3.84427E8,4.6505816E7,4.2385696E7,1.5561196E9,1.1013427E8,2.8387738E8,1.3441203E8,1.4299136E7,1.8497536E7,2.030592E7,1.19616E6,7.109632E7,1.3463768E7,6.338547E7,5.808064E6,6.00872E7,7.03488E6,3.928548E7,1.8600304E7,1.0568788E7,6.44408E5,2.0964065E9,2.4084173E8,1.58773E8,1.6564275E8,4.1342684E7,9.682492E6,2.24996E7,1.1806176E7,1.5493325E9,1.8769408E7,4.722381E7,3.65984E7,1.3860045E8,1.4712013E8,3.0995456E7,2.5120376E7,0E0,0E0,0E0,0E0,0E0,0E0,0E0,0E0,0E0,0E0,0E0,0E0,0E0,0E0,0E0,0E0,0E0,0E0,0E0,0E0,0E0,0E0,0E0,0E0,0E0,0E0,0E0,0E0,0E0,0E0,0E0,0E0,0E0,0E0,0E0,0E0,0E0,0E0,0E0,0E0,0E0,0E0,0E0,0E0,0E0,0E0,0E0,0E0,0E0,0E0,0E0,0E0,0E0,0E0,0E0,0E0,0E0,0E0,0E0,0E0],"parents":[2147483647,0,0,1,1,2,2,3,3,4,4,5,5,6,6,7,7,8,8,9,9,10,10,11,11,12,12,13,13,14,14,15,15,16,16,17,17,19,19,20,20,21,21,22,22,23,23,24,24,25,25,26,26,27,27,28,28,29,29,30,30,31,31,32,32,33,33,34,34,35,35,36,36,37,37,38,38,39,39,40,40,41,41,42,42,43,43,44,44,45,45,46,46,47,47,48,48,49,49,50,50,51,51,52,52,53,53,54,54,55,55,56,56,57,57,58,58,59,59,60,60],"right_children":[2,4,6,8,10,12,14,16,18,20,22,24,26,28,30,32,34,36,-1,38,40,42,44,46,48,50,52,54,56,58,60,62,64,66,68,70,72,74,76,78,80,82,84,86,88,90,92,94,96,98,100,102,104,106,108,110,112,114,116,118,120,-1,-1,-1,-1,-1,-1,-1,-1,-1,-1,-1,-1,-1,-1,-1,-1,-1,-1,-1,-1,-1,-1,-1,-1,-1,-1,-1,-1,-1,-1,-1,-1,-1,-1,-1,-1,-1,-1,-1,-1,-1,-1,-1,-1,-1,-1,-1,-1,-1,-1,-1,-1,-1,-1,-1,-1,-1,-1,-1,-1],"split_conditions":[1E0,6.5E-1,1.5E0,5E-1,9E-1,1E0,1.78E0,3.7E-1,1E0,1E0,1E0,1E0,1.2E0,1E0,1E0,1E0,1E0,1E0,-1.11102844E2,1E0,1E0,6.3E1,1E0,1E0,1.1E0,1E0,1.28E0,1E0,1.59E0,1E0,6.76E1,1E0,1E0,1E0,1E0,1E0,1E0,1E0,7.4E-1,1E0,8E-1,1E0,1E0,1E0,9.8E-1,1E0,1.11E0,1E0,1E0,1E0,1E0,1E0,1E0,1E0,1.55E0,6.49E1,1E0,1E0,2.05E0,5.6E1,7.02E1,-1.2926628E2,-1.1709267E2,-1.2113784E2,-1.0765993E2,-1.1670249E2,-9.628344E1,-1.0054525E2,-8.104382E1,-8.697274E1,-6.5560905E1,-5.0370815E1,5.2649293E0,-5.4229267E1,-2.5181692E1,-7.765565E1,-6.454032E1,-2.7489899E1,-7.600721E1,-6.330102E1,-4.245731E1,1.8553663E1,-1.8331861E1,-3.9447534E0,-3.410188E1,-1.5821563E1,-3.885141E1,-5.344519E1,-5.887732E0,8.018691E1,2.948263E2,2.1119368E2,3.2349445E2,1.8561336E2,-2.5423288E1,2.820262E2,6.562491E1,-3.1189914E0,1.9782888E1,2.3028103E1,5.196371E1,4.4789993E1,3.925012E-1,7.654642E1,2.8857916E1,3.3152676E2,2.0735388E2,1.3912718E2,1.7661548E2,1.5171599E2,4.9475925E1,2.144727E2,9.382403E1,4.595349E2,4.116472E2,3.1219296E2,4.0658572E2,9.642757E1,3.048032E2,9.2134445E1,3.01406E2],"split_indices":[0,0,0,0,0,4,0,0,4,18,4,8,0,4,16,18,7,2,0,4,4,21,14,7,0,9,0,15,0,15,21,7,2,2,9,8,9,9,0,15,0,14,16,13,0,2,0,15,15,10,18,15,15,14,0,21,15,4,0,21,21,0,0,0,0,0,0,0,0,0,0,0,0,0,0,0,0,0,0,0,0,0,0,0,0,0,0,0,0,0,0,0,0,0,0,0,0,0,0,0,0,0,0,0,0,0,0,0,0,0,0,0,0,0,0,0,0,0,0,0,0],"split_type":[0,0,0,0,0,0,0,0,0,0,0,0,0,0,0,0,0,0,0,0,0,0,0,0,0,0,0,0,0,0,0,0,0,0,0,0,0,0,0,0,0,0,0,0,0,0,0,0,0,0,0,0,0,0,0,0,0,0,0,0,0,0,0,0,0,0,0,0,0,0,0,0,0,0,0,0,0,0,0,0,0,0,0,0,0,0,0,0,0,0,0,0,0,0,0,0,0,0,0,0,0,0,0,0,0,0,0,0,0,0,0,0,0,0,0,0,0,0,0,0,0],"sum_hessian":[2.916E4,1.8843E4,1.0317E4,1.3485E4,5.358E3,6.915E3,3.402E3,9.52E3,3.965E3,3.845E3,1.513E3,5.125E3,1.79E3,2.141E3,1.261E3,6.24E3,3.28E3,3.562E3,4.03E2,2.379E3,1.466E3,1.075E3,4.38E2,4.657E3,4.68E2,1.331E3,4.59E2,1.71E3,4.31E2,1.162E3,9.9E1,3.047E3,3.193E3,2.884E3,3.96E2,3.451E3,1.11E2,1.915E3,4.64E2,1.216E3,2.5E2,7.56E2,3.19E2,4.08E2,3E1,4.445E3,2.12E2,2.64E2,2.04E2,1.154E3,1.77E2,2.96E2,1.63E2,1.506E3,2.04E2,3.1E2,1.21E2,9.39E2,2.23E2,8.4E1,1.5E1,2.643E3,4.04E2,2.816E3,3.77E2,2.722E3,1.62E2,3.6E2,3.6E1,2.986E3,4.65E2,9.9E1,1.2E1,1.701E3,2.14E2,2.62E2,2.02E2,1.149E3,6.7E1,1.86E2,6.4E1,6.76E2,8E1,2.56E2,6.3E1,3.5E2,5.8E1,2.9E1,1E0,4.329E3,1.16E2,1.04E2,1.08E2,2.55E2,9E0,1.94E2,1E1,9.03E2,2.51E2,1.4E2,3.7E1,2.64E2,3.2E1,1.47E2,1.6E1,1.178E3,3.28E2,1.15E2,8.9E1,2.97E2,1.3E1,1.12E2,9E0,4.24E2,5.15E2,1.05E2,1.18E2,3E0,8.1E1,1.4E1,1E0],"tree_param":{"num_deleted":"0","num_feature":"23","num_nodes":"121","size_leaf_vector":"1"}},{"base_weights":[-3.4881675E0,-1.6748657E3,3.0527317E3,-2.089372E3,-6.5027637E2,1.5371991E3,5.928275E3,-2.284011E3,-1.6277347E3,-8.972092E2,-2.2539968E1,1.964576E3,2.9278302E2,4.690476E3,7.520695E3,-2.3784583E3,-2.1988074E3,-1.5734896E3,-2.1070347E3,-1.0467332E3,-6.5548553E2,1.349743E2,-4.0709265E2,1.8754504E3,5.654949E3,7.447618E1,7.673832E2,5.1774497E3,2.8134192E3,7.753089E3,2.96227E3,-1.2239461E2,-2.3057942E3,-2.173146E3,-1.2593926E2,-1.5967986E3,-8.5039856E2,-2.114004E3,-1.1308779E3,-1.0236301E3,-1.104883E2,-5.651004E2,-1.0958892E3,1.9037727E2,-1.3615258E3,-3.633887E2,-9.8043964E2,1.5297269E3,2.7662556E3,5.022487E3,4.55854E2,1.1551831E2,-6.701172E2,5.30845E2,9.8047986E2,5.352437E3,2.8847678E2,2.5889133E3,3.7652905E3,6.473012E3,8.1655435E3,1.845033E3,2.6061606E2,-1.1675173E2,-1.0450803E2,-1.0951965E2,-9.5897255E1,-8.613636E1,-7.385152E1,-4.8044186E1,4.0949893E0,-1.0814689E2,-9.495262E1,-7.447907E1,7.598395E0,-4.7062115E1,-6.824116E1,-2.5649397E1,-7.2103386E1,-5.7417828E1,-2.7370691E1,3.8017297E0,3.6615425E1,-7.043334E1,-3.796165E1,-1.5199846E1,-3.660597E1,-5.0273346E1,-5.7405396E0,8.086094E1,-4.9879864E1,1.5302295E2,2.9867493E1,2.23734E2,3.7491528E2,7.4366503E0,-3.5118847E1,-3.798293E1,-1.8260355E1,2.9610304E1,-4.8606887E0,4.508352E1,9.195098E1,2.852783E2,1.388187E2,-1.6076816E0,4.835748E1,1.1858089E2,1.9132738E2,1.9062617E2,6.64685E1,3.545684E2,2.2230069E2,4.4000592E2,3.8172284E2,8.1480095E1,1.426566E2],"categories":[],"categories_nodes":[],"categories_segments":[],"categories_sizes":[],"default_left":[0,0,0,0,0,0,0,0,0,0,0,0,0,0,0,0,0,0,0,0,0,0,0,0,0,0,0,0,0,0,0,0,0,0,0,0,0,0,0,0,0,0,0,0,0,0,0,0,0,0,0,0,0,0,0,0,0,0,0,0,0,0,0,0,0,0,0,0,0,0,0,0,0,0,0,0,0,0,0,0,0,0,0,0,0,0,0,0,0,0,0,0,0,0,0,0,0,0,0,0,0,0,0,0,0,0,0,0,0,0,0,0,0,0,0,0,0],"id":9,"left_children":[1,3,5,7,9,11,13,15,17,19,21,23,25,27,29,31,33,35,37,39,41,43,45,47,49,51,53,55,57,59,61,-1,63,65,-1,67,69,71,73,75,-1,77,79,81,83,85,87,89,91,93,-1,95,97,99,101,103,105,107,109,111,113,115,-1,-1,-1,-1,-1,-1,-1,-1,-1,-1,-1,-1,-1,-1,-1,-1,-1,-1,-1,-1,-1,-1,-1,-1,-1,-1,-1,-1,-1,-1,-1,-1,-1,-1,-1,-1,-1,-1,-1,-1,-1,-1,-1,-1,-1,-1,-1,-1,-1,-1,-1,-1,-1,-1,-1],"loss_changes":[1.4892147E11,8.002941E9,4.4908577E10,1.201922E9,8.4167706E8,3.589843E9,6.975914E9,7.070515E7,1.0024038E8,1.4016512E8,9.297321E7,1.6421478E9,1.7887464E8,1.8172436E9,1.6232612E9,1.6873472E7,3.536691E7,5.901517E7,3.44064E5,6.2386176E7,5.87712E7,9.05488E7,1.0819376E7,1.5072973E9,2.1259034E8,3.6260096E7,2.6900128E7,1.3587128E9,7.893811E7,7.274824E8,1.8394886E8,0E0,8.977408E6,1.6101376E7,0E0,4.9775616E7,1.1821272E7,7.872E4,2.527174E6,6.508365E7,0E0,5.592941E7,6.651968E6,6.507044E7,3.7816E4,8.887656E6,5.56156E5,7.83936E8,8.730061E8,1.047872E8,0E0,3.061204E7,1.415296E6,1.0077544E7,1.7625216E7,1.380524E9,1.2216872E7,8.20928E7,3.790976E6,4.2596557E8,3.0824858E8,6.860848E6,0E0,0E0,0E0,0E0,0E0,0E0,0E0,0E0,0E0,0E0,0E0,0E0,0E0,0E0,0E0,0E0,0E0,0E0,0E0,0E0,0E0,0E0,0E0,0E0,0E0,0E0,0E0,0E0,0E0,0E0,0E0,0E0,0E0,0E0,0E0,0E0,0E0,0E0,0E0,0E0,0E0,0E0,0E0,0E0,0E0,0E0,0E0,0E0,0E0,0E0,0E0,0E0,0E0,0E0,0E0],"parents":[2147483647,0,0,1,1,2,2,3,3,4,4,5,5,6,6,7,7,8,8,9,9,10,10,11,11,12,12,13,13,14,14,15,15,16,16,17,17,18,18,19,19,20,20,21,21,22,22,23,23,24,24,25,25,26,26,27,27,28,28,29,29,30,30,32,32,33,33,35,35,36,36,37,37,38,38,39,39,41,41,42,42,43,43,44,44,45,45,46,46,47,47,48,48,49,49,51,51,52,52,53,53,54,54,55,55,56,56,57,57,58,58,59,59,60,60,61,61],"right_children":[2,4,6,8,10,12,14,16,18,20,22,24,26,28,30,32,34,36,38,40,42,44,46,48,50,52,54,56,58,60,62,-1,64,66,-1,68,70,72,74,76,-1,78,80,82,84,86,88,90,92,94,-1,96,98,100,102,104,106,108,110,112,114,116,-1,-1,-1,-1,-1,-1,-1,-1,-1,-1,-1,-1,-1,-1,-1,-1,-1,-1,-1,-1,-1,-1,-1,-1,-1,-1,-1,-1,-1,-1,-1,-1,-1,-1,-1,-1,-1,-1,-1,-1,-1,-1,-1,-1,-1,-1,-1,-1,-1,-1,-1,-1,-1,-1,-1],"split_conditions":[1E0,6.5E-1,1.38E0,5E-1,9E-1,1E0,1.7E0,3.3E-1,1E0,1E0,1E0,1E0,1.14E0,1E0,1E0,1E0,1E0,1E0,6.42E1,1E0,1E0,1E0,1E0,1.19E0,1E0,1E0,1.22E0,1E0,1E0,2E0,2.38E0,-1.2239461E2,1E0,1E0,-1.2593926E2,1E0,1E0,1E0,1E0,1E0,-1.104883E2,1E0,8.3E-1,1E0,1E0,1E0,9.8E-1,1E0,1E0,1E0,4.55854E2,6.5E1,1.06E0,1E0,1E0,1E0,1.53E0,1E0,6.21E1,1E0,1E0,1E0,2.6061606E2,-1.1675173E2,-1.0450803E2,-1.0951965E2,-9.5897255E1,-8.613636E1,-7.385152E1,-4.8044186E1,4.0949893E0,-1.0814689E2,-9.495262E1,-7.447907E1,7.598395E0,-4.7062115E1,-6.824116E1,-2.5649397E1,-7.2103386E1,-5.7417828E1,-2.7370691E1,3.8017297E0,3.6615425E1,-7.043334E1,-3.796165E1,-1.5199846E1,-3.660597E1,-5.0273346E1,-5.7405396E0,8.086094E1,-4.9879864E1,1.5302295E2,2.9867493E1,2.23734E2,3.7491528E2,7.4366503E0,-3.5118847E1,-3.798293E1,-1.8260355E1,2.9610304E1,-4.8606887E0,4.508352E1,9.195098E1,2.852783E2,1.388187E2,-1.6076816E0,4.835748E1,1.1858089E2,1.9132738E2,1.9062617E2,6.64685E1,3.545684E2,2.2230069E2,4.4000592E2,3.8172284E2,8.1480095E1,1.426566E2],"split_indices":[0,0,0,0,0,4,0,0,4,18,4,2,0,4,1,18,4,2,22,1,4,1,14,0,9,15,0,1,10,0,0,0,2,2,0,18,9,9,11,4,0,15,0,18,9,13,0,1,15,10,0,21,0,15,9,15,0,9,22,4,4,18,0,0,0,0,0,0,0,0,0,0,0,0,0,0,0,0,0,0,0,0,0,0,0,0,0,0,0,0,0,0,0,0,0,0,0,0,0,0,0,0,0,0,0,0,0,0,0,0,0,0,0,0,0,0,0],"split_type":[0,0,0,0,0,0,0,0,0,0,0,0,0,0,0,0,0,0,0,0,0,0,0,0,0,0,0,0,0,0,0,0,0,0,0,0,0,0,0,0,0,0,0,0,0,0,0,0,0,0,0,0,0,0,0,0,0,0,0,0,0,0,0,0,0,0,0,0,0,0,0,0,0,0,0,0,0,0,0,0,0,0,0,0,0,0,0,0,0,0,0,0,0,0,0,0,0,0,0,0,0,0,0,0,0,0,0,0,0,0,0,0,0,0,0,0,0],"sum_hessian":[2.9152E4,1.8846E4,1.0306E4,1.3417E4,5.429E3,6.75E3,3.556E3,9.435E3,3.982E3,3.896E3,1.533E3,5.024E3,1.726E3,2.003E3,1.553E3,4.462E3,4.973E3,3.581E3,4.01E2,2.405E3,1.491E3,1.088E3,4.45E2,4.907E3,1.17E2,1.183E3,5.43E2,1.589E3,4.14E2,1.477E3,7.6E1,2.265E3,2.197E3,4.611E3,3.62E2,3.468E3,1.13E2,3.97E2,4E0,2.36E3,4.5E1,1.239E3,2.52E2,1.05E3,3.8E1,4.15E2,3E1,3.537E3,1.37E3,1.01E2,1.6E1,1.122E3,6.1E1,2.59E2,2.84E2,1.534E3,5.5E1,3.38E2,7.6E1,3.64E2,1.113E3,5.2E1,2.4E1,1.926E3,2.71E2,4.312E3,2.99E2,1.684E3,1.784E3,1.01E2,1.2E1,3.16E2,8.1E1,3E0,1E0,1.904E3,4.56E2,1.171E3,6.8E1,2.29E2,2.3E1,8.68E2,1.82E2,3.4E1,4E0,3.59E2,5.6E1,2.9E1,1E0,3.419E3,1.18E2,1.206E3,1.64E2,8.5E1,1.6E1,1.079E3,4.3E1,4.6E1,1.5E1,2.36E2,2.3E1,2.62E2,2.2E1,1.348E3,1.86E2,3.8E1,1.7E1,2.9E2,4.8E1,7.4E1,2E0,2.77E2,8.7E1,5E2,6.13E2,4.5E1,7E0],"tree_param":{"num_deleted":"0","num_feature":"23","num_nodes":"117","size_leaf_vector":"1"}},{"base_weights":[3.706848E0,-3.9180984E2,2.3816554E2,-4.8970102E2,2.3823032E2,9.9936035E1,8.313616E2,-4.042891E2,-8.67854E2,3.5364078E2,-4.7180673E2,2.1163957E2,-4.072179E2,6.981158E2,1.4542935E3,-4.417857E2,4.8411258E2,-5.648622E2,-9.7434924E2,4.7801666E2,-1.3985289E2,-5.4830396E2,4.0191577E2,2.687305E2,-5.7339215E2,-3.5558252E2,-1.0271226E3,8.3024994E2,2.499421E2,1.2200109E3,1.781722E3,-3.968508E2,-8.135035E2,7.0079083E2,-1.26904915E2,-3.6261673E2,-8.730105E2,-1.0720142E3,-6.0337695E2,6.7487537E2,-1.1604638E2,-2.4491542E2,2.9159927E2,-4.468491E2,-9.9469214E2,-4.6257642E2,3.1010263E1,3.547343E2,-2.4644914E2,-7.234123E2,-6.6322495E1,-5.1811664E2,-2.8638953E2,-9.3497894E2,-1.5334608E3,1.0001163E3,2.7101962E2,-5.6738155E1,4.9172525E2,1.2904785E3,3.1094318E2,1.8353116E3,6.841615E0,-1.6251804E1,-3.7997284E1,-5.207249E1,-2.8365808E1,9.696428E1,2.9932688E1,-4.2485287E1,4.571223E-1,-2.4269386E1,1.4508616E1,-4.6194576E1,3.6978054E1,-5.427174E1,2.6914417E1,-1.7804277E1,-3.2259983E1,4.7787098E1,1.194801E1,-8.757229E0,2.8617008E1,-4.3238995E1,-6.4421363E0,5.6010637E0,2.202121E1,-3.430058E1,-1.378091E1,-7.8088066E1,-3.6403843E1,-3.8390766E1,-5.2445846E0,2.3449802E1,3.133441E-1,-2.79337E1,-4.61339E0,-3.8572784E1,2.15792E1,3.9668107E-1,-5.3612316E1,-2.8281403E1,2.1071432E1,-1.2474963E1,-2.9789692E1,-5.469985E1,1.2254564E0,-8.2227806E1,-2.0010162E1,6.513331E1,2.373973E1,1.1187048E1,1.0361096E2,-6.0685763E0,4.0787873E0,3.3074306E1,-1.1414756E1,6.2754543E1,1.3745622E2,8.6731606E1,-8.9213295E0,1.0712536E2,8.235407E1],"categories":[],"categories_nodes":[],"categories_segments":[],"categories_sizes":[],"default_left":[0,0,0,0,0,0,0,0,0,0,0,0,0,0,0,0,0,0,0,0,0,0,0,0,0,0,0,0,0,0,0,0,0,0,0,0,0,0,0,0,0,0,0,0,0,0,0,0,0,0,0,0,0,0,0,0,0,0,0,0,0,0,0,0,0,0,0,0,0,0,0,0,0,0,0,0,0,0,0,0,0,0,0,0,0,0,0,0,0,0,0,0,0,0,0,0,0,0,0,0,0,0,0,0,0,0,0,0,0,0,0,0,0,0,0,0,0,0,0,0,0,0,0],"id":10,"left_children":[1,3,5,7,9,11,13,15,17,19,21,23,25,27,29,31,33,35,37,39,41,43,45,47,49,51,53,55,57,59,61,63,65,67,69,71,73,75,77,79,81,83,85,87,89,91,-1,93,95,97,99,101,103,105,107,109,111,113,115,117,119,121,-1,-1,-1,-1,-1,-1,-1,-1,-1,-1,-1,-1,-1,-1,-1,-1,-1,-1,-1,-1,-1,-1,-1,-1,-1,-1,-1,-1,-1,-1,-1,-1,-1,-1,-1,-1,-1,-1,-1,-1,-1,-1,-1,-1,-1,-1,-1,-1,-1,-1,-1,-1,-1,-1,-1,-1,-1,-1,-1,-1,-1],"loss_changes":[2.6964713E9,6.675676E8,1.4968576E9,3.021916E8,1.1947981E8,8.389159E8,2.8534528E8,2.5481805E8,5.5110656E7,7.697438E7,1.3855192E7,5.440227E8,8.519482E7,1.6821146E8,4.438976E7,1.2217766E8,4.1131144E7,2.779048E7,4.554752E7,1.1714173E8,1.153977E7,8.069712E6,3.494955E6,5.013372E8,6.2558176E7,2.7618528E7,8.130688E6,2.0833651E8,4.815132E7,2.2468064E7,2.1874304E7,1.7041747E8,4.3742016E7,2.780668E7,8.0712505E6,2.2100188E7,1.5288032E7,2.2368512E7,2.542016E6,9.184195E7,1.0270844E7,1.4566243E7,1.2869475E6,6.158484E6,4.003356E6,3.5617975E5,0E0,3.8601792E8,7.7885896E7,3.5569056E7,1.4126052E7,3.3092768E7,1.9643216E7,2.688016E7,3.118824E6,2.6702989E8,4.322258E7,2.575593E6,4.452097E7,1.3635264E7,1.912068E7,1.0522176E7,0E0,0E0,0E0,0E0,0E0,0E0,0E0,0E0,0E0,0E0,0E0,0E0,0E0,0E0,0E0,0E0,0E0,0E0,0E0,0E0,0E0,0E0,0E0,0E0,0E0,0E0,0E0,0E0,0E0,0E0,0E0,0E0,0E0,0E0,0E0,0E0,0E0,0E0,0E0,0E0,0E0,0E0,0E0,0E0,0E0,0E0,0E0,0E0,0E0,0E0,0E0,0E0,0E0,0E0,0E0,0E0,0E0,0E0,0E0,0E0,0E0],"parents":[2147483647,0,0,1,1,2,2,3,3,4,4,5,5,6,6,7,7,8,8,9,9,10,10,11,11,12,12,13,13,14,14,15,15,16,16,17,17,18,18,19,19,20,20,21,21,22,22,23,23,24,24,25,25,26,26,27,27,28,28,29,29,30,30,31,31,32,32,33,33,34,34,35,35,36,36,37,37,38,38,39,39,40,40,41,41,42,42,43,43,44,44,45,45,47,47,48,48,49,49,50,50,51,51,52,52,53,53,54,54,55,55,56,56,57,57,58,58,59,59,60,60,61,61],"right_children":[2,4,6,8,10,12,14,16,18,20,22,24,26,28,30,32,34,36,38,40,42,44,46,48,50,52,54,56,58,60,62,64,66,68,70,72,74,76,78,80,82,84,86,88,90,92,-1,94,96,98,100,102,104,106,108,110,112,114,116,118,120,122,-1,-1,-1,-1,-1,-1,-1,-1,-1,-1,-1,-1,-1,-1,-1,-1,-1,-1,-1,-1,-1,-1,-1,-1,-1,-1,-1,-1,-1,-1,-1,-1,-1,-1,-1,-1,-1,-1,-1,-1,-1,-1,-1,-1,-1,-1,-1,-1,-1,-1,-1,-1,-1,-1,-1,-1,-1,-1,-1,-1,-1],"split_conditions":[5.7E1,1E0,1E0,1E0,1E0,1E0,1E0,1E0,1E0,1E0,1E0,1E0,1E0,1E0,1E0,1E0,1E0,1E0,1E0,1E0,1E0,1E0,5.51E1,1E0,1E0,5.8E1,6.01E1,1E0,5.81E1,1E0,6.12E1,1E0,5.51E1,5.32E1,5.41E1,1E0,1E0,1E0,5.47E1,1E0,1E0,5.48E1,5.51E1,5.51E1,5.41E1,5.41E1,3.1010263E1,1E0,5.71E1,1E0,1E0,1E0,6.12E1,5.91E1,6.33E1,1E0,6.42E1,1E0,6.12E1,6.33E1,5.71E1,5.81E1,6.841615E0,-1.6251804E1,-3.7997284E1,-5.207249E1,-2.8365808E1,9.696428E1,2.9932688E1,-4.2485287E1,4.571223E-1,-2.4269386E1,1.4508616E1,-4.6194576E1,3.6978054E1,-5.427174E1,2.6914417E1,-1.7804277E1,-3.2259983E1,4.7787098E1,1.194801E1,-8.757229E0,2.8617008E1,-4.3238995E1,-6.4421363E0,5.6010637E0,2.202121E1,-3.430058E1,-1.378091E1,-7.8088066E1,-3.6403843E1,-3.8390766E1,-5.2445846E0,2.3449802E1,3.133441E-1,-2.79337E1,-4.61339E0,-3.8572784E1,2.15792E1,3.9668107E-1,-5.3612316E1,-2.8281403E1,2.1071432E1,-1.2474963E1,-2.9789692E1,-5.469985E1,1.2254564E0,-8.2227806E1,-2.0010162E1,6.513331E1,2.373973E1,1.1187048E1,1.0361096E2,-6.0685763E0,4.0787873E0,3.3074306E1,-1.1414756E1,6.2754543E1,1.3745622E2,8.6731606E1,-8.9213295E0,1.0712536E2,8.235407E1],"split_indices":[22,4,4,10,9,10,13,19,18,11,19,7,7,10,19,7,12,3,3,10,20,17,22,9,11,22,22,9,22,16,22,9,22,22,22,17,16,1,22,12,19,22,22,22,22,22,0,11,22,15,17,19,22,22,22,11,22,19,22,22,22,22,0,0,0,0,0,0,0,0,0,0,0,0,0,0,0,0,0,0,0,0,0,0,0,0,0,0,0,0,0,0,0,0,0,0,0,0,0,0,0,0,0,0,0,0,0,0,0,0,0,0,0,0,0,0,0,0,0,0,0,0,0],"split_type":[0,0,0,0,0,0,0,0,0,0,0,0,0,0,0,0,0,0,0,0,0,0,0,0,0,0,0,0,0,0,0,0,0,0,0,0,0,0,0,0,0,0,0,0,0,0,0,0,0,0,0,0,0,0,0,0,0,0,0,0,0,0,0,0,0,0,0,0,0,0,0,0,0,0,0,0,0,0,0,0,0,0,0,0,0,0,0,0,0,0,0,0,0,0,0,0,0,0,0,0,0,0,0,0,0,0,0,0,0,0,0,0,0,0,0,0,0,0,0,0,0,0,0],"sum_hessian":[2.9076E4,1.0821E4,1.8255E4,9.366E3,1.455E3,1.4806E4,3.449E3,7.642E3,1.724E3,1.252E3,2.03E2,1.2134E4,2.672E3,2.843E3,6.06E2,7.333E3,3.09E2,4.5E2,1.274E3,1E3,2.52E2,1.87E2,1.6E1,1.1312E4,8.22E2,2.468E3,2.04E2,2.195E3,6.48E2,3.56E2,2.5E2,6.544E3,7.89E2,2.28E2,8.1E1,2.73E2,1.77E2,1.007E3,2.67E2,7.51E2,2.49E2,2.03E2,4.9E1,1.54E2,3.3E1,3E0,1.3E1,9.694E3,1.618E3,6.34E2,1.88E2,7.35E2,1.733E3,1.75E2,2.9E1,1.683E3,5.12E2,2.86E2,3.62E2,3.3E2,2.6E1,2.42E2,8E0,5.465E3,1.079E3,4.08E2,3.81E2,1.6E1,2.12E2,1.2E1,6.9E1,2.3E2,4.3E1,1.72E2,5E0,9.99E2,8E0,4E1,2.27E2,4.56E2,2.95E2,2.3E2,1.9E1,3.1E1,1.72E2,2.3E1,2.6E1,6.3E1,9.1E1,9E0,2.4E1,1E0,2E0,7.3E3,2.394E3,5.34E2,1.084E3,6.09E2,2.5E1,1.76E2,1.2E1,7E2,3.5E1,1.55E3,1.83E2,1.5E2,2.5E1,2.6E1,3E0,1.067E3,6.16E2,5E2,1.2E1,1.95E2,9.1E1,2.93E2,6.9E1,3.24E2,6E0,6E0,2E1,8.8E1,1.54E2],"tree_param":{"num_deleted":"0","num_feature":"23","num_nodes":"123","size_leaf_vector":"1"}},{"base_weights":[1.5591642E0,-1.5846017E3,2.8862708E3,-1.9944784E3,-6.645506E2,1.45439E3,5.6337085E3,-2.1645613E3,-1.5787781E3,-9.5429645E2,-1.452883E2,1.2731362E3,3.9955508E3,4.476708E3,7.1247017E3,-2.2003699E3,-1.9399153E3,-1.616601E3,-1.02299255E3,-9.980008E2,-1.391342E2,-1.14378235E2,-1.419098E3,1.1498898E3,4.9504907E3,4.143035E3,2.1756696E2,4.7323247E3,2.353062E3,7.357335E3,2.603078E3,-2.2239648E3,-1.9413091E3,-2.0484355E3,-1.7992292E3,-1.6701427E3,-1.217366E3,-1.1035961E3,-4.9505945E2,-1.1253337E3,-7.920558E2,-2.6097638E2,6.394463E2,-4.5374368E2,2.6503508E0,-5.9990536E1,-8.650518E1,1.061093E3,5.5118833E3,3.8488853E3,5.866887E3,4.3818657E3,1.7468807E3,-8.306147E2,9.6010205E2,4.8762866E3,3.026603E2,2.129047E3,3.1570056E3,6.1285254E3,7.750302E3,1.7562301E3,4.5149717E3,-1.1475103E2,-1.0630849E2,-1.0073851E2,-8.983773E1,-1.1067954E2,-9.879421E1,-9.192068E1,-8.054012E1,-8.4613365E1,-4.790649E1,-6.519953E1,-4.0986103E1,-5.8937695E1,-3.60162E1,-1.912029E1,-4.3747562E1,-5.5212532E1,-1.09761894E2,-5.8746216E1,-3.5941612E1,-2.2642492E1,2.0752062E1,-8.199448E0,4.720399E1,-2.4247763E1,8.002563E1,-1.2451565E0,7.5644554E1,4.2252464E1,1.1652016E2,2.8833765E2,1.0403332E2,2.0544139E2,7.3335464E1,2.979886E2,2.8371206E1,1.8347606E2,2.6261728E2,4.7969913E1,1.4586798E2,-5.750169E1,4.2547526E0,2.132751E1,6.668185E1,2.612437E2,1.8285722E2,4.8388424E0,6.303175E1,9.8052765E1,1.7286816E2,1.6066777E2,6.484946E1,3.2582486E2,1.8250491E2,4.013558E2,3.2956134E2,7.247266E1,1.1783526E2,2.3241373E2,3.955763E1],"categories":[],"categories_nodes":[],"categories_segments":[],"categories_sizes":[],"default_left":[0,0,0,0,0,0,0,0,0,0,0,0,0,0,0,0,0,0,0,0,0,0,0,0,0,0,0,0,0,0,0,0,0,0,0,0,0,0,0,0,0,0,0,0,0,0,0,0,0,0,0,0,0,0,0,0,0,0,0,0,0,0,0,0,0,0,0,0,0,0,0,0,0,0,0,0,0,0,0,0,0,0,0,0,0,0,0,0,0,0,0,0,0,0,0,0,0,0,0,0,0,0,0,0,0,0,0,0,0,0,0,0,0,0,0,0,0,0,0,0,0,0,0],"id":11,"left_children":[1,3,5,7,9,11,13,15,17,19,21,23,25,27,29,31,33,35,37,39,41,43,45,47,49,51,53,55,57,59,61,63,65,67,69,71,73,75,77,79,81,83,85,87,89,-1,-1,91,93,95,97,99,101,103,105,107,109,111,113,115,117,119,121,-1,-1,-1,-1,-1,-1,-1,-1,-1,-1,-1,-1,-1,-1,-1,-1,-1,-1,-1,-1,-1,-1,-1,-1,-1,-1,-1,-1,-1,-1,-1,-1,-1,-1,-1,-1,-1,-1,-1,-1,-1,-1,-1,-1,-1,-1,-1,-1,-1,-1,-1,-1,-1,-1,-1,-1,-1,-1,-1,-1],"loss_changes":[1.330086E11,7.071707E9,4.056318E10,9.1396096E8,8.6978714E8,3.118208E9,6.0628173E9,6.977946E7,7.76192E7,1.3206938E8,8.141966E7,2.8636488E9,2.5039258E8,1.0702029E9,1.6028549E9,4.416717E7,1.576448E7,7.340134E7,9.794096E6,9.146803E7,1.819103E7,8.038529E7,1.265984E6,2.3673267E9,1.8436813E8,2.407127E8,1.4807085E7,1.1317207E9,3.21792E7,6.603981E8,1.1674003E8,4.5592576E7,3.494656E6,4.157696E6,1.195648E6,4.735488E7,1.3432768E7,5.200144E6,1.120483E6,4.6614784E7,3.6974656E7,2.1590074E7,6.518404E6,3.405263E7,6.270593E7,0E0,0E0,1.645035E9,9.469184E7,5.341939E7,5.076429E7,2.2503885E8,3.4992096E7,2.4378235E6,1.623438E6,7.12278E8,1.1120175E7,3.1601088E7,5.48832E5,3.2237568E8,3.022766E8,6.715728E6,7.739648E6,0E0,0E0,0E0,0E0,0E0,0E0,0E0,0E0,0E0,0E0,0E0,0E0,0E0,0E0,0E0,0E0,0E0,0E0,0E0,0E0,0E0,0E0,0E0,0E0,0E0,0E0,0E0,0E0,0E0,0E0,0E0,0E0,0E0,0E0,0E0,0E0,0E0,0E0,0E0,0E0,0E0,0E0,0E0,0E0,0E0,0E0,0E0,0E0,0E0,0E0,0E0,0E0,0E0,0E0,0E0,0E0,0E0,0E0,0E0,0E0],"parents":[2147483647,0,0,1,1,2,2,3,3,4,4,5,5,6,6,7,7,8,8,9,9,10,10,11,11,12,12,13,13,14,14,15,15,16,16,17,17,18,18,19,19,20,20,21,21,22,22,23,23,24,24,25,25,26,26,27,27,28,28,29,29,30,30,31,31,32,32,33,33,34,34,35,35,36,36,37,37,38,38,39,39,40,40,41,41,42,42,43,43,44,44,47,47,48,48,49,49,50,50,51,51,52,52,53,53,54,54,55,55,56,56,57,57,58,58,59,59,60,60,61,61,62,62],"right_children":[2,4,6,8,10,12,14,16,18,20,22,24,26,28,30,32,34,36,38,40,42,44,46,48,50,52,54,56,58,60,62,64,66,68,70,72,74,76,78,80,82,84,86,88,90,-1,-1,92,94,96,98,100,102,104,106,108,110,112,114,116,118,120,122,-1,-1,-1,-1,-1,-1,-1,-1,-1,-1,-1,-1,-1,-1,-1,-1,-1,-1,-1,-1,-1,-1,-1,-1,-1,-1,-1,-1,-1,-1,-1,-1,-1,-1,-1,-1,-1,-1,-1,-1,-1,-1,-1,-1,-1,-1,-1,-1,-1,-1,-1,-1,-1,-1,-1,-1,-1,-1,-1,-1],"split_conditions":[1E0,6E-1,1.38E0,4.6E-1,8E-1,1E0,1.7E0,1E0,1E0,1E0,1E0,1E0,1E0,1E0,1E0,1E0,3.3E-1,1E0,1E0,1E0,1E0,9E-1,1E0,1E0,1.1E0,1E0,1.03E0,1E0,1E0,2E0,2.38E0,3.5E-1,3.4E-1,3E-1,1E0,1E0,1E0,1E0,6.21E1,1E0,7E-1,1E0,6.5E-1,1E0,1E0,-5.9990536E1,-8.650518E1,1E0,1E0,1E0,1E0,1.1E0,1.21E0,1E0,1.24E0,1E0,1E0,1E0,1E0,1E0,1E0,2.14E0,6.69E1,-1.1475103E2,-1.0630849E2,-1.0073851E2,-8.983773E1,-1.1067954E2,-9.879421E1,-9.192068E1,-8.054012E1,-8.4613365E1,-4.790649E1,-6.519953E1,-4.0986103E1,-5.8937695E1,-3.60162E1,-1.912029E1,-4.3747562E1,-5.5212532E1,-1.09761894E2,-5.8746216E1,-3.5941612E1,-2.2642492E1,2.0752062E1,-8.199448E0,4.720399E1,-2.4247763E1,8.002563E1,-1.2451565E0,7.5644554E1,4.2252464E1,1.1652016E2,2.8833765E2,1.0403332E2,2.0544139E2,7.3335464E1,2.979886E2,2.8371206E1,1.8347606E2,2.6261728E2,4.7969913E1,1.4586798E2,-5.750169E1,4.2547526E0,2.132751E1,6.668185E1,2.612437E2,1.8285722E2,4.8388424E0,6.303175E1,9.8052765E1,1.7286816E2,1.6066777E2,6.484946E1,3.2582486E2,1.8250491E2,4.013558E2,3.2956134E2,7.247266E1,1.1783526E2,2.3241373E2,3.955763E1],"split_indices":[0,0,0,0,0,8,0,7,7,7,1,7,15,15,1,2,0,8,10,18,10,0,16,2,0,13,0,1,5,0,0,0,0,0,10,2,10,11,21,1,0,11,0,2,7,0,0,5,13,13,15,0,0,20,0,13,18,8,16,15,15,0,21,0,0,0,0,0,0,0,0,0,0,0,0,0,0,0,0,0,0,0,0,0,0,0,0,0,0,0,0,0,0,0,0,0,0,0,0,0,0,0,0,0,0,0,0,0,0,0,0,0,0,0,0,0,0,0,0,0,0,0,0],"split_type":[0,0,0,0,0,0,0,0,0,0,0,0,0,0,0,0,0,0,0,0,0,0,0,0,0,0,0,0,0,0,0,0,0,0,0,0,0,0,0,0,0,0,0,0,0,0,0,0,0,0,0,0,0,0,0,0,0,0,0,0,0,0,0,0,0,0,0,0,0,0,0,0,0,0,0,0,0,0,0,0,0,0,0,0,0,0,0,0,0,0,0,0,0,0,0,0,0,0,0,0,0,0,0,0,0,0,0,0,0,0,0,0,0,0,0,0,0,0,0,0,0,0,0],"sum_hessian":[2.9067E4,1.8755E4,1.0312E4,1.2974E4,5.781E3,6.78E3,3.532E3,9.204E3,3.77E3,3.71E3,2.071E3,6.33E3,4.5E2,1.991E3,1.541E3,7.931E3,1.273E3,3.528E3,2.42E2,3.521E3,1.89E2,2.023E3,4.8E1,6.126E3,2.04E2,4.33E2,1.7E1,1.776E3,2.15E2,1.465E3,7.6E1,7.262E3,6.69E2,7.11E2,5.62E2,3.108E3,4.2E2,2.09E2,3.3E1,2.173E3,1.348E3,1.64E2,2.5E1,5.18E2,1.505E3,3.1E1,1.7E1,6.005E3,1.21E2,9.5E1,1.09E2,3.93E2,4E1,7E0,1E1,1.72E3,5.6E1,1.71E2,4.4E1,3.59E2,1.106E3,5.4E1,2.2E1,4.193E3,3.069E3,4.35E2,2.34E2,2.08E2,5.03E2,4.58E2,1.04E2,3.013E3,9.5E1,3.43E2,7.7E1,1.73E2,3.6E1,2.7E1,6E0,2.133E3,4E1,2.14E2,1.134E3,1.28E2,3.6E1,7E0,1.8E1,5.11E2,7E0,1.479E3,2.6E1,5.133E3,8.72E2,1.12E2,9E0,8.5E1,1E1,1.07E2,2E0,2.19E2,1.74E2,2.5E1,1.5E1,5E0,2E0,5E0,5E0,1.335E3,3.85E2,4.7E1,9E0,1.54E2,1.7E1,4.2E1,2E0,3.09E2,5E1,8.88E2,2.18E2,3.8E1,1.6E1,2.1E1,1E0],"tree_param":{"num_deleted":"0","num_feature":"23","num_nodes":"123","size_leaf_vector":"1"}},{"base_weights":[1.0142401E0,-1.5088488E3,2.7402766E3,-1.8949259E3,-6.381062E2,1.4181593E3,5.447181E3,-2.0505522E3,-1.4801777E3,-9.112291E2,-1.4752553E2,1.2369039E3,3.8874963E3,4.325831E3,6.7966934E3,-2.0846392E3,-1.8337942E3,-1.5152769E3,-9.143847E2,-9.511183E2,-1.2478196E2,-1.0023357E2,-9.481498E2,1.1228054E3,4.6544863E3,3.600479E3,6.3093115E3,4.457769E3,1.5663141E2,6.995284E3,2.712728E3,-2.1519822E3,-1.9925468E3,-1.9340244E3,-1.6720089E3,-1.565962E3,-1.1319358E3,-9.899446E2,-1.027066E2,-1.0178977E3,-5.231655E2,3.573638E1,-3.954038E1,-3.0578926E1,-6.6811865E2,-1.3003448E3,-7.7781006E2,1.0376165E3,5.2359043E3,4.316037E3,4.0030142E2,2.7773577E3,4.313461E3,2.5851962E2,3.685993E2,4.70016E3,2.415161E3,-2.2135136E2,7.852101E2,6.127559E3,7.443058E3,1.6987372E3,4.843198E3,-1.0893694E2,-9.481021E1,-1.0059439E2,-8.463344E1,-1.050969E2,-9.3570496E1,-8.493429E1,-6.8880646E1,-7.942386E1,-4.205661E1,-4.9038197E1,-6.781414E1,-5.359485E1,-2.887905E1,-3.1394392E1,1.7503937E0,-4.9074352E1,-7.981023E1,-4.8565956E1,-2.1599949E1,5.12728E0,-5.647704E1,-3.2355354E0,5.9940796E1,-4.8253716E1,-2.8555365E1,-4.4731762E1,-7.012234E1,-4.2630035E1,-2.3641556E1,4.173585E1,1.11499695E2,2.3266844E2,4.3657632E2,1.7149178E2,2.548522E2,1.4441684E2,-3.5548435E1,2.2455493E2,5.218995E1,2.5561804E2,1.4683449E2,1.2723423E2,6.985351E1,-6.0478046E1,-4.9290543E0,5.5036755E1,1.4825325E1,3.2219678E2,1.9815634E2,3.8563547E2,3.167214E2,1.0891829E2,6.134789E1,2.4966092E2,3.856869E1],"categories":[],"categories_nodes":[],"categories_segments":[],"categories_sizes":[],"default_left":[0,0,0,0,0,0,0,0,0,0,0,0,0,0,0,0,0,0,0,0,0,0,0,0,0,0,0,0,0,0,0,0,0,0,0,0,0,0,0,0,0,0,0,0,0,0,0,0,0,0,0,0,0,0,0,0,0,0,0,0,0,0,0,0,0,0,0,0,0,0,0,0,0,0,0,0,0,0,0,0,0,0,0,0,0,0,0,0,0,0,0,0,0,0,0,0,0,0,0,0,0,0,0,0,0,0,0,0,0,0,0,0,0,0,0,0,0,0,0],"id":12,"left_children":[1,3,5,7,9,11,13,15,17,19,21,23,25,27,29,31,33,35,37,39,41,43,45,47,49,51,53,55,57,59,61,63,65,67,69,71,73,75,77,79,81,83,-1,85,87,89,91,93,95,97,-1,99,101,-1,-1,103,105,107,109,111,113,115,117,-1,-1,-1,-1,-1,-1,-1,-1,-1,-1,-1,-1,-1,-1,-1,-1,-1,-1,-1,-1,-1,-1,-1,-1,-1,-1,-1,-1,-1,-1,-1,-1,-1,-1,-1,-1,-1,-1,-1,-1,-1,-1,-1,-1,-1,-1,-1,-1,-1,-1,-1,-1,-1,-1,-1,-1],"loss_changes":[1.2043358E11,6.3094456E9,3.702259E10,8.363827E8,7.7271296E8,3.1072184E9,5.1081626E9,6.602752E7,6.915277E7,1.1610982E8,7.8054376E7,2.5212017E9,3.0745754E8,1.02078874E9,1.2292096E9,4.633395E7,1.773312E7,6.31808E7,1.2777712E7,1.0023501E8,1.927194E7,7.711344E7,5.887744E6,2.1918674E9,2.0252006E8,2.386135E8,2.1188736E7,8.798495E8,1.3954139E7,5.243945E8,1.4947283E8,2.8049408E7,1.6668672E7,4.393472E6,1.602176E6,4.6808064E7,1.2032288E7,5.869376E6,1.3961571E6,6.2634496E7,1.9109848E7,1.1482113E7,0E0,7.300655E7,5.58496E6,2.3658E5,1.421632E6,1.4848148E9,2.179822E8,1.1540659E8,0E0,7.986701E7,1.2715725E8,0E0,0E0,1.1538432E9,2.1895168E7,4.369703E6,3.065986E6,3.2027443E8,2.3902618E8,8.867472E6,1.019808E7,0E0,0E0,0E0,0E0,0E0,0E0,0E0,0E0,0E0,0E0,0E0,0E0,0E0,0E0,0E0,0E0,0E0,0E0,0E0,0E0,0E0,0E0,0E0,0E0,0E0,0E0,0E0,0E0,0E0,0E0,0E0,0E0,0E0,0E0,0E0,0E0,0E0,0E0,0E0,0E0,0E0,0E0,0E0,0E0,0E0,0E0,0E0,0E0,0E0,0E0,0E0,0E0,0E0,0E0,0E0,0E0],"parents":[2147483647,0,0,1,1,2,2,3,3,4,4,5,5,6,6,7,7,8,8,9,9,10,10,11,11,12,12,13,13,14,14,15,15,16,16,17,17,18,18,19,19,20,20,21,21,22,22,23,23,24,24,25,25,26,26,27,27,28,28,29,29,30,30,31,31,32,32,33,33,34,34,35,35,36,36,37,37,38,38,39,39,40,40,41,41,43,43,44,44,45,45,46,46,47,47,48,48,49,49,51,51,52,52,55,55,56,56,57,57,58,58,59,59,60,60,61,61,62,62],"right_children":[2,4,6,8,10,12,14,16,18,20,22,24,26,28,30,32,34,36,38,40,42,44,46,48,50,52,54,56,58,60,62,64,66,68,70,72,74,76,78,80,82,84,-1,86,88,90,92,94,96,98,-1,100,102,-1,-1,104,106,108,110,112,114,116,118,-1,-1,-1,-1,-1,-1,-1,-1,-1,-1,-1,-1,-1,-1,-1,-1,-1,-1,-1,-1,-1,-1,-1,-1,-1,-1,-1,-1,-1,-1,-1,-1,-1,-1,-1,-1,-1,-1,-1,-1,-1,-1,-1,-1,-1,-1,-1,-1,-1,-1,-1,-1,-1,-1,-1,-1],"split_conditions":[1E0,6E-1,1.5E0,5E-1,8E-1,1E0,1.7E0,1E0,1E0,1E0,1E0,1E0,1E0,1E0,1E0,3.5E-1,3.4E-1,1E0,1E0,1E0,1E0,1E0,9E-1,1E0,1E0,1.07E0,1.06E0,1E0,1.53E0,2.01E0,2.38E0,1E0,1E0,3E-1,1E0,1E0,1E0,1E0,5.2E-1,1E0,7E-1,1E0,-3.954038E1,1E0,9E-1,5.61E1,1E0,1E0,1E0,1.1E0,4.0030142E2,1E0,1E0,2.5851962E2,3.685993E2,1E0,6.34E1,5.75E1,5.91E1,1E0,1E0,1E0,6.69E1,-1.0893694E2,-9.481021E1,-1.0059439E2,-8.463344E1,-1.050969E2,-9.3570496E1,-8.493429E1,-6.8880646E1,-7.942386E1,-4.205661E1,-4.9038197E1,-6.781414E1,-5.359485E1,-2.887905E1,-3.1394392E1,1.7503937E0,-4.9074352E1,-7.981023E1,-4.8565956E1,-2.1599949E1,5.12728E0,-5.647704E1,-3.2355354E0,5.9940796E1,-4.8253716E1,-2.8555365E1,-4.4731762E1,-7.012234E1,-4.2630035E1,-2.3641556E1,4.173585E1,1.11499695E2,2.3266844E2,4.3657632E2,1.7149178E2,2.548522E2,1.4441684E2,-3.5548435E1,2.2455493E2,5.218995E1,2.5561804E2,1.4683449E2,1.2723423E2,6.985351E1,-6.0478046E1,-4.9290543E0,5.5036755E1,1.4825325E1,3.2219678E2,1.9815634E2,3.8563547E2,3.167214E2,1.0891829E2,6.134789E1,2.4966092E2,3.856869E1],"split_indices":[0,0,0,0,0,8,0,7,7,7,15,7,9,1,1,0,0,8,9,9,14,14,0,2,9,0,0,15,0,0,0,2,2,0,9,2,12,11,0,15,0,15,0,8,0,22,5,5,9,0,0,15,14,0,0,14,21,21,22,15,15,16,21,0,0,0,0,0,0,0,0,0,0,0,0,0,0,0,0,0,0,0,0,0,0,0,0,0,0,0,0,0,0,0,0,0,0,0,0,0,0,0,0,0,0,0,0,0,0,0,0,0,0,0,0,0,0,0,0],"split_type":[0,0,0,0,0,0,0,0,0,0,0,0,0,0,0,0,0,0,0,0,0,0,0,0,0,0,0,0,0,0,0,0,0,0,0,0,0,0,0,0,0,0,0,0,0,0,0,0,0,0,0,0,0,0,0,0,0,0,0,0,0,0,0,0,0,0,0,0,0,0,0,0,0,0,0,0,0,0,0,0,0,0,0,0,0,0,0,0,0,0,0,0,0,0,0,0,0,0,0,0,0,0,0,0,0,0,0,0,0,0,0,0,0,0,0,0,0,0,0],"sum_hessian":[2.9117E4,1.8771E4,1.0346E4,1.3004E4,5.767E3,6.952E3,3.394E3,9.453E3,3.551E3,3.704E3,2.063E3,6.478E3,4.74E2,1.856E3,1.538E3,8.161E3,1.292E3,3.342E3,2.09E2,3.525E3,1.79E2,1.949E3,1.14E2,6.27E3,2.08E2,4.26E2,4.8E1,1.799E3,5.7E1,1.466E3,7.2E1,4.701E3,3.46E3,7.91E2,5.01E2,2.949E3,3.93E2,1.91E2,1.8E1,3.048E3,4.77E2,1.45E2,3.4E1,1.737E3,2.12E2,3.5E1,7.9E1,6.144E3,1.26E2,1.91E2,1.7E1,2E2,2.26E2,2.6E1,2.2E1,1.607E3,1.92E2,3.6E1,2.1E1,5.04E2,9.62E2,5E1,2.2E1,4.249E3,4.52E2,3.245E3,2.15E2,2.06E2,5.85E2,4.55E2,4.6E1,2.859E3,9E1,2.38E2,1.55E2,1.58E2,3.3E1,3E0,1.5E1,2.87E3,1.78E2,7.9E1,3.98E2,1.38E2,7E0,1.691E3,4.6E1,5E1,1.62E2,9E0,2.6E1,6.2E1,1.7E1,5.252E3,8.92E2,1.1E2,1.6E1,9.2E1,9.9E1,1.94E2,6E0,2.14E2,1.2E1,1.301E3,3.06E2,1.69E2,2.3E1,3E0,3.3E1,1.2E1,9E0,4.38E2,6.6E1,7.69E2,1.93E2,2.3E1,2.7E1,2.1E1,1E0],"tree_param":{"num_deleted":"0","num_feature":"23","num_nodes":"119","size_leaf_vector":"1"}},{"base_weights":[-5.638618E0,-1.4307598E3,2.5988506E3,-1.7765535E3,-5.41904E2,1.3184913E3,5.0910527E3,-1.949386E3,-1.3773015E3,-7.584198E2,-1.8972355E1,1.1423052E3,3.6746619E3,4.2174854E3,6.660515E3,-2.0027599E3,-1.8346222E3,-1.4215416E3,-1.0401783E3,-9.005457E2,-5.316172E2,9.765916E0,-1.2238562E3,1.067776E3,4.927819E3,3.3909336E3,5.906559E3,4.451357E3,2.3220603E3,6.9039766E3,2.3342144E3,-2.0847954E3,-1.9236296E3,-1.7931614E3,-1.9772092E3,-1.4441995E3,-7.2486115E2,-1.1003047E3,-4.641171E2,-8.7787463E2,-9.939552E1,-6.048559E2,-6.680848E1,-7.2558105E1,4.0400064E2,-1.2729905E3,-3.3231262E1,7.878345E2,1.840019E3,4.257219E3,4.1695554E2,3.072096E3,4.977566E3,2.4911235E2,3.427688E2,4.582303E3,4.1863544E2,2.096265E3,3.0803887E3,7.1487124E3,5.860966E3,1.4029866E3,4.095182E3,-1.0554199E2,-9.937064E1,-9.840185E1,-8.832317E1,-8.871734E1,-1.0729026E2,-1.0064253E2,-9.004544E1,-7.527645E1,-5.9364407E1,-4.0498405E1,4.011492E0,-5.9911243E1,-3.2999123E1,-2.8026052E1,2.6009387E-1,-4.197419E1,-7.4564384E1,-3.4872974E1,-1.5311539E1,-6.6218987E0,7.501216E1,-7.490996E0,1.5539261E1,2.2804607E1,-1.852473E1,-7.003658E1,-4.259433E1,2.9721434E1,7.153973E1,1.02433815E2,1.574617E1,1.887065E2,3.2537454E2,1.3416101E2,2.2414685E2,2.0023882E2,2.93059E2,2.154456E2,3.0759457E2,3.7474506E0,7.225052E1,9.682104E1,1.6642386E2,1.3837021E2,2.0403725E2,3.6734018E2,3.0902795E2,2.747122E2,4.0613184E2,1.8873137E1,7.7368935E1,2.179003E2,4.4517727E1],"categories":[],"categories_nodes":[],"categories_segments":[],"categories_sizes":[],"default_left":[0,0,0,0,0,0,0,0,0,0,0,0,0,0,0,0,0,0,0,0,0,0,0,0,0,0,0,0,0,0,0,0,0,0,0,0,0,0,0,0,0,0,0,0,0,0,0,0,0,0,0,0,0,0,0,0,0,0,0,0,0,0,0,0,0,0,0,0,0,0,0,0,0,0,0,0,0,0,0,0,0,0,0,0,0,0,0,0,0,0,0,0,0,0,0,0,0,0,0,0,0,0,0,0,0,0,0,0,0,0,0,0,0,0,0,0,0],"id":13,"left_children":[1,3,5,7,9,11,13,15,17,19,21,23,25,27,29,31,33,35,37,39,41,43,45,47,49,51,53,55,57,59,61,63,65,67,69,71,73,75,77,79,-1,81,83,85,87,89,-1,91,93,95,-1,97,99,-1,-1,101,103,105,107,109,111,113,115,-1,-1,-1,-1,-1,-1,-1,-1,-1,-1,-1,-1,-1,-1,-1,-1,-1,-1,-1,-1,-1,-1,-1,-1,-1,-1,-1,-1,-1,-1,-1,-1,-1,-1,-1,-1,-1,-1,-1,-1,-1,-1,-1,-1,-1,-1,-1,-1,-1,-1,-1,-1,-1,-1],"loss_changes":[1.08088795E11,5.784183E9,3.2856506E10,9.3231514E8,5.970104E8,2.8207258E9,4.7636644E9,5.4235136E7,5.9625984E7,1.1972365E8,5.3509548E7,1.7814743E9,2.7949978E8,9.8617344E8,1.298391E9,3.7810176E7,1.4266368E7,5.6080384E7,1.6080224E7,5.473216E7,4.8946016E7,4.9036348E7,1.43124E5,1.3414784E9,2.4358682E8,1.9818854E8,1.144896E7,1.0542162E9,3.6178176E7,2.5956762E8,1.0576509E8,3.795968E6,1.9497984E7,1.1751424E7,5.78816E5,5.342208E7,8.013168E6,1.787856E7,2.129394E6,5.1640064E7,0E0,3.416003E7,2.0459116E7,3.706881E7,1.0698928E7,5.28092E5,0E0,5.663199E8,5.2505805E8,8.849638E7,0E0,1.821906E8,3.5837696E7,0E0,0E0,8.046797E8,2.2467772E7,3.1962176E7,5.927232E6,1.3717094E8,1.4613504E8,6.22748E6,1.5492864E7,0E0,0E0,0E0,0E0,0E0,0E0,0E0,0E0,0E0,0E0,0E0,0E0,0E0,0E0,0E0,0E0,0E0,0E0,0E0,0E0,0E0,0E0,0E0,0E0,0E0,0E0,0E0,0E0,0E0,0E0,0E0,0E0,0E0,0E0,0E0,0E0,0E0,0E0,0E0,0E0,0E0,0E0,0E0,0E0,0E0,0E0,0E0,0E0,0E0,0E0,0E0,0E0,0E0,0E0],"parents":[2147483647,0,0,1,1,2,2,3,3,4,4,5,5,6,6,7,7,8,8,9,9,10,10,11,11,12,12,13,13,14,14,15,15,16,16,17,17,18,18,19,19,20,20,21,21,22,22,23,23,24,24,25,25,26,26,27,27,28,28,29,29,30,30,31,31,32,32,33,33,34,34,35,35,36,36,37,37,38,38,39,39,41,41,42,42,43,43,44,44,45,45,47,47,48,48,49,49,51,51,52,52,55,55,56,56,57,57,58,58,59,59,60,60,61,61,62,62],"right_children":[2,4,6,8,10,12,14,16,18,20,22,24,26,28,30,32,34,36,38,40,42,44,46,48,50,52,54,56,58,60,62,64,66,68,70,72,74,76,78,80,-1,82,84,86,88,90,-1,92,94,96,-1,98,100,-1,-1,102,104,106,108,110,112,114,116,-1,-1,-1,-1,-1,-1,-1,-1,-1,-1,-1,-1,-1,-1,-1,-1,-1,-1,-1,-1,-1,-1,-1,-1,-1,-1,-1,-1,-1,-1,-1,-1,-1,-1,-1,-1,-1,-1,-1,-1,-1,-1,-1,-1,-1,-1,-1,-1,-1,-1,-1,-1,-1,-1],"split_conditions":[1E0,7E-1,1.38E0,5E-1,9E-1,1E0,1.78E0,3.8E-1,1E0,1E0,1E0,1E0,1E0,1E0,1E0,1E0,1E0,1E0,1E0,1E0,1E0,1E0,1E0,1.19E0,1E0,1E0,1.06E0,1E0,1E0,1E0,2.38E0,1E0,1E0,1E0,1E0,1E0,1E0,1E0,6E-1,1E0,-9.939552E1,1E0,1E0,1E0,1E0,1E0,-3.3231262E1,1E0,1E0,1E0,4.1695554E2,1.22E0,1.07E0,2.4911235E2,3.427688E2,1E0,1.59E0,1E0,1.62E0,6.31E1,2.38E0,2E0,1E0,-1.0554199E2,-9.937064E1,-9.840185E1,-8.832317E1,-8.871734E1,-1.0729026E2,-1.0064253E2,-9.004544E1,-7.527645E1,-5.9364407E1,-4.0498405E1,4.011492E0,-5.9911243E1,-3.2999123E1,-2.8026052E1,2.6009387E-1,-4.197419E1,-7.4564384E1,-3.4872974E1,-1.5311539E1,-6.6218987E0,7.501216E1,-7.490996E0,1.5539261E1,2.2804607E1,-1.852473E1,-7.003658E1,-4.259433E1,2.9721434E1,7.153973E1,1.02433815E2,1.574617E1,1.887065E2,3.2537454E2,1.3416101E2,2.2414685E2,2.0023882E2,2.93059E2,2.154456E2,3.0759457E2,3.7474506E0,7.225052E1,9.682104E1,1.6642386E2,1.3837021E2,2.0403725E2,3.6734018E2,3.0902795E2,2.747122E2,4.0613184E2,1.8873137E1,7.7368935E1,2.179003E2,4.4517727E1],"split_indices":[0,0,0,0,0,8,0,0,8,18,1,2,9,15,1,18,3,2,9,1,9,18,9,0,9,10,0,1,5,15,0,10,10,15,9,9,9,10,0,15,0,10,8,10,15,18,0,6,15,10,0,0,0,0,0,5,0,8,0,21,0,0,12,0,0,0,0,0,0,0,0,0,0,0,0,0,0,0,0,0,0,0,0,0,0,0,0,0,0,0,0,0,0,0,0,0,0,0,0,0,0,0,0,0,0,0,0,0,0,0,0,0,0,0,0,0,0],"split_type":[0,0,0,0,0,0,0,0,0,0,0,0,0,0,0,0,0,0,0,0,0,0,0,0,0,0,0,0,0,0,0,0,0,0,0,0,0,0,0,0,0,0,0,0,0,0,0,0,0,0,0,0,0,0,0,0,0,0,0,0,0,0,0,0,0,0,0,0,0,0,0,0,0,0,0,0,0,0,0,0,0,0,0,0,0,0,0,0,0,0,0,0,0,0,0,0,0,0,0,0,0,0,0,0,0,0,0,0,0,0,0,0,0,0,0,0,0],"sum_hessian":[2.9119E4,1.8821E4,1.0298E4,1.3549E4,5.272E3,6.804E3,3.494E3,9.453E3,4.096E3,3.728E3,1.544E3,6.332E3,4.72E2,2.247E3,1.247E3,6.441E3,3.012E3,3.618E3,4.78E2,2.29E3,1.438E3,1.509E3,3.5E1,6.211E3,1.21E2,4.21E2,5.1E1,1.999E3,2.48E2,1.18E3,6.7E1,3.15E3,3.291E3,2.344E3,6.68E2,3.503E3,1.15E2,4.32E2,4.6E1,2.245E3,4.5E1,1.242E3,1.96E2,1.249E3,2.6E2,3.1E1,4E0,4.56E3,1.651E3,1.03E2,1.8E1,3.53E2,6.8E1,2.9E1,2.2E1,1.936E3,6.3E1,1.94E2,5.4E1,9.51E2,2.29E2,4.5E1,2.2E1,2.469E3,6.81E2,2.557E3,7.34E2,2.231E3,1.13E2,5.47E2,1.21E2,2.824E3,6.79E2,1.04E2,1.1E1,3.52E2,8E1,3.8E1,8E0,2.115E3,1.3E2,9.47E2,2.95E2,1.89E2,7E0,1.04E3,2.09E2,2.44E2,1.6E1,2.2E1,9E0,3.507E3,1.053E3,1.452E3,1.99E2,8.7E1,1.6E1,2.79E2,7.4E1,3.5E1,3.3E1,1.652E3,2.84E2,4.8E1,1.5E1,1.74E2,2E1,4.4E1,1E1,7.84E2,1.67E2,2E2,2.9E1,6E0,3.9E1,2E1,2E0],"tree_param":{"num_deleted":"0","num_feature":"23","num_nodes":"117","size_leaf_vector":"1"}},{"base_weights":[4.875078E0,-1.2760192E3,2.6550286E3,-1.6878202E3,-3.6278278E2,1.3812117E3,4.929376E3,-1.85676E3,-1.3232435E3,-7.244921E2,2.0048335E2,1.7913978E3,2.01275E2,3.9159856E3,6.121268E3,-1.9323633E3,-1.7815385E3,-1.2703057E3,-1.7972112E3,-6.3043634E2,-1.1214205E3,4.2511142E2,-3.9975485E2,1.587757E3,3.74501E3,3.416685E1,7.313969E2,4.3602744E3,2.0685186E3,6.3108945E3,2.3305376E3,-1.9831519E3,-1.8328927E3,-1.8222915E3,-1.6363148E3,-1.3986581E3,-1.1445875E3,-1.8459401E3,-7.924995E1,-6.987716E2,-1.2819537E2,-1.1984955E3,-8.99449E2,1.395984E2,9.2239624E2,-3.438834E2,-9.059547E2,1.3265217E3,2.5407368E3,3.8834001E3,1.9521123E2,-4.352843E1,5.329417E2,8.5516144E2,1.5824042E2,4.513589E3,1.3562962E2,1.8728367E3,2.92479E3,5.3005967E3,6.6516904E3,1.5015457E3,3.9616196E3,-9.8334526E1,-1.11492516E2,-9.027075E1,-1.0401233E2,-9.352535E1,-8.130498E1,-8.097355E1,-1.0057254E2,-7.162855E1,-5.3980762E1,-6.046879E1,-4.276718E1,-9.261938E1,-2.4995691E1,-4.0544006E1,-1.5608965E1,-8.792258E0,4.231779E1,-6.427058E1,-4.1756454E1,-4.9526764E1,-2.9935822E1,9.463469E0,-5.931905E1,3.8773663E1,1.0025816E2,-1.4891335E1,-4.9170116E1,-4.885511E1,-2.1202423E1,7.0913506E1,-5.2352734E1,1.458701E2,4.8884777E1,1.8186299E2,2.850908E2,-1.6691046E1,4.9933006E1,-7.0810113E0,1.8438723E1,1.940907E1,4.669268E1,4.8980705E1,8.8866234E-1,-4.1584775E-1,2.7919699E1,2.4461514E2,1.4097678E2,-8.011828E0,3.1591034E1,8.2523636E1,1.5357574E2,1.2950836E2,1.9337605E2,2.9520657E2,1.6872957E2,3.632603E2,3.0571924E2,5.9383595E1,1.0389467E2,2.096923E2,4.3033806E1],"categories":[],"categories_nodes":[],"categories_segments":[],"categories_sizes":[],"default_left":[0,0,0,0,0,0,0,0,0,0,0,0,0,0,0,0,0,0,0,0,0,0,0,0,0,0,0,0,0,0,0,0,0,0,0,0,0,0,0,0,0,0,0,0,0,0,0,0,0,0,0,0,0,0,0,0,0,0,0,0,0,0,0,0,0,0,0,0,0,0,0,0,0,0,0,0,0,0,0,0,0,0,0,0,0,0,0,0,0,0,0,0,0,0,0,0,0,0,0,0,0,0,0,0,0,0,0,0,0,0,0,0,0,0,0,0,0,0,0,0,0,0,0,0,0],"id":14,"left_children":[1,3,5,7,9,11,13,15,17,19,21,23,25,27,29,31,33,35,37,39,41,43,45,47,49,51,53,55,57,59,61,63,65,67,69,71,73,75,-1,77,79,81,83,85,87,89,91,93,95,97,99,101,103,105,107,109,111,113,115,117,119,121,123,-1,-1,-1,-1,-1,-1,-1,-1,-1,-1,-1,-1,-1,-1,-1,-1,-1,-1,-1,-1,-1,-1,-1,-1,-1,-1,-1,-1,-1,-1,-1,-1,-1,-1,-1,-1,-1,-1,-1,-1,-1,-1,-1,-1,-1,-1,-1,-1,-1,-1,-1,-1,-1,-1,-1,-1,-1,-1,-1,-1,-1,-1],"loss_changes":[9.8761515E10,7.375659E9,2.7457716E10,8.301363E8,1.2423396E9,2.941353E9,4.0863498E9,4.907827E7,1.0520627E8,1.3791206E8,3.2174032E8,1.7882911E9,1.3896909E8,1.5029105E9,1.1080868E9,1.957376E7,2.4489984E7,6.063616E7,1.50016E6,1.0301005E8,1.1068992E7,2.4635075E8,1.807184E7,1.01384704E9,2.0802611E8,4.6293624E7,2.6536784E7,9.6057344E8,5.467507E7,4.7672934E8,9.681517E7,7.91552E6,6.887936E6,3.1164416E7,3.231744E6,1.905408E7,3.5582464E7,2.041856E6,0E0,1.1433856E8,1.6912638E7,1.5475712E7,4.52936E6,7.293694E7,9.914483E7,1.6996688E7,1.779992E6,7.0031514E8,5.140644E8,1.6232346E8,7.559228E6,4.1870836E7,8.981316E6,3.2185072E7,4.536744E6,9.049211E8,7.881967E6,7.356083E7,1.048736E7,4.2179277E8,3.208233E8,6.93896E6,1.4393504E7,0E0,0E0,0E0,0E0,0E0,0E0,0E0,0E0,0E0,0E0,0E0,0E0,0E0,0E0,0E0,0E0,0E0,0E0,0E0,0E0,0E0,0E0,0E0,0E0,0E0,0E0,0E0,0E0,0E0,0E0,0E0,0E0,0E0,0E0,0E0,0E0,0E0,0E0,0E0,0E0,0E0,0E0,0E0,0E0,0E0,0E0,0E0,0E0,0E0,0E0,0E0,0E0,0E0,0E0,0E0,0E0,0E0,0E0,0E0,0E0,0E0,0E0],"parents":[2147483647,0,0,1,1,2,2,3,3,4,4,5,5,6,6,7,7,8,8,9,9,10,10,11,11,12,12,13,13,14,14,15,15,16,16,17,17,18,18,19,19,20,20,21,21,22,22,23,23,24,24,25,25,26,26,27,27,28,28,29,29,30,30,31,31,32,32,33,33,34,34,35,35,36,36,37,37,39,39,40,40,41,41,42,42,43,43,44,44,45,45,46,46,47,47,48,48,49,49,50,50,51,51,52,52,53,53,54,54,55,55,56,56,57,57,58,58,59,59,60,60,61,61,62,62],"right_children":[2,4,6,8,10,12,14,16,18,20,22,24,26,28,30,32,34,36,38,40,42,44,46,48,50,52,54,56,58,60,62,64,66,68,70,72,74,76,-1,78,80,82,84,86,88,90,92,94,96,98,100,102,104,106,108,110,112,114,116,118,120,122,124,-1,-1,-1,-1,-1,-1,-1,-1,-1,-1,-1,-1,-1,-1,-1,-1,-1,-1,-1,-1,-1,-1,-1,-1,-1,-1,-1,-1,-1,-1,-1,-1,-1,-1,-1,-1,-1,-1,-1,-1,-1,-1,-1,-1,-1,-1,-1,-1,-1,-1,-1,-1,-1,-1,-1,-1,-1,-1,-1,-1,-1,-1],"split_conditions":[1.01E0,7E-1,1.5E0,4.6E-1,9E-1,1E0,1.7E0,1E0,1E0,1E0,1E0,1E0,1.21E0,1E0,1E0,3.7E-1,1E0,1E0,1E0,1E0,1E0,1E0,1E0,1.22E0,1E0,1E0,1E0,1E0,1E0,2E0,2.38E0,1E0,1E0,1E0,1E0,1E0,1E0,6.42E1,-7.924995E1,1E0,1E0,1E0,7.8E-1,1E0,1E0,1E0,1E0,1E0,1E0,1E0,1.24E0,1E0,1E0,1E0,1.3E0,1E0,1.53E0,1E0,1E0,1E0,1E0,2.14E0,1E0,-9.8334526E1,-1.11492516E2,-9.027075E1,-1.0401233E2,-9.352535E1,-8.130498E1,-8.097355E1,-1.0057254E2,-7.162855E1,-5.3980762E1,-6.046879E1,-4.276718E1,-9.261938E1,-2.4995691E1,-4.0544006E1,-1.5608965E1,-8.792258E0,4.231779E1,-6.427058E1,-4.1756454E1,-4.9526764E1,-2.9935822E1,9.463469E0,-5.931905E1,3.8773663E1,1.0025816E2,-1.4891335E1,-4.9170116E1,-4.885511E1,-2.1202423E1,7.0913506E1,-5.2352734E1,1.458701E2,4.8884777E1,1.8186299E2,2.850908E2,-1.6691046E1,4.9933006E1,-7.0810113E0,1.8438723E1,1.940907E1,4.669268E1,4.8980705E1,8.8866234E-1,-4.1584775E-1,2.7919699E1,2.4461514E2,1.4097678E2,-8.011828E0,3.1591034E1,8.2523636E1,1.5357574E2,1.2950836E2,1.9337605E2,2.9520657E2,1.6872957E2,3.632603E2,3.0571924E2,5.9383595E1,1.0389467E2,2.096923E2,4.3033806E1],"split_indices":[0,0,0,0,0,4,0,18,4,4,4,8,0,4,1,0,10,18,9,9,10,0,16,0,15,9,14,1,10,0,0,4,4,9,4,8,9,22,0,10,8,9,0,1,9,14,9,1,14,9,0,10,18,15,0,14,0,9,18,4,4,0,12,0,0,0,0,0,0,0,0,0,0,0,0,0,0,0,0,0,0,0,0,0,0,0,0,0,0,0,0,0,0,0,0,0,0,0,0,0,0,0,0,0,0,0,0,0,0,0,0,0,0,0,0,0,0,0,0,0,0,0,0,0,0],"split_type":[0,0,0,0,0,0,0,0,0,0,0,0,0,0,0,0,0,0,0,0,0,0,0,0,0,0,0,0,0,0,0,0,0,0,0,0,0,0,0,0,0,0,0,0,0,0,0,0,0,0,0,0,0,0,0,0,0,0,0,0,0,0,0,0,0,0,0,0,0,0,0,0,0,0,0,0,0,0,0,0,0,0,0,0,0,0,0,0,0,0,0,0,0,0,0,0,0,0,0,0,0,0,0,0,0,0,0,0,0,0,0,0,0,0,0,0,0,0,0,0,0,0,0,0,0],"sum_hessian":[2.9092E4,1.9613E4,9.479E3,1.3517E4,6.096E3,6.077E3,3.402E3,9.234E3,4.283E3,3.712E3,2.384E3,4.509E3,1.568E3,1.841E3,1.561E3,4.593E3,4.641E3,3.856E3,4.27E2,3.003E3,7.09E2,1.735E3,6.49E2,4.085E3,4.24E2,1.193E3,3.75E2,1.483E3,3.58E2,1.486E3,7.5E1,3.028E3,1.565E3,3.615E3,1.026E3,1.903E3,1.953E3,3.41E2,8.6E1,2.643E3,3.6E2,5.23E2,1.86E2,1.103E3,6.32E2,5.86E2,6.3E1,3.208E3,8.77E2,4.08E2,1.6E1,1.033E3,1.6E2,3.08E2,6.7E1,1.431E3,5.2E1,2.94E2,6.4E1,3.79E2,1.107E3,5.1E1,2.4E1,2.847E3,1.81E2,1.416E3,1.49E2,2.895E3,7.2E2,9.87E2,3.9E1,1.717E3,1.86E2,1.593E3,3.6E2,3.39E2,2E0,2.048E3,5.95E2,3.44E2,1.6E1,4.2E2,1.03E2,1.41E2,4.5E1,1.064E3,3.9E1,5.58E2,7.4E1,5.48E2,3.8E1,5.4E1,9E0,3.089E3,1.19E2,7.06E2,1.71E2,3.62E2,4.6E1,1E1,6E0,8.35E2,1.98E2,1.19E2,4.1E1,2.68E2,4E1,4.8E1,1.9E1,1.168E3,2.63E2,3.3E1,1.9E1,2.5E2,4.4E1,5E1,1.4E1,2.87E2,9.2E1,5.11E2,5.96E2,3.5E1,1.6E1,2.2E1,2E0],"tree_param":{"num_deleted":"0","num_feature":"23","num_nodes":"125","size_leaf_vector":"1"}},{"base_weights":[2.6436388E0,-9.4061957E2,3.2462683E3,-1.4401133E3,4.7511118E2,1.9098898E3,4.9074175E3,-1.7356589E3,-9.825303E2,-1.1019778E2,7.971294E2,1.7874974E3,5.125583E3,4.0910867E3,6.1392627E3,-1.7889098E3,-1.566975E3,-1.2073608E3,-7.4686383E2,-6.702574E1,-8.517986E2,6.7278613E2,2.6474973E3,1.6014805E3,4.1065493E3,4.821983E3,4.027211E2,4.3575015E3,2.1616057E3,6.3511675E3,2.6273413E3,-1.8200859E3,-1.5991086E3,-1.6356561E3,-1.4479011E3,-1.2469174E3,-6.3837335E2,-7.81476E2,-7.4754834E-1,-2.8234408E0,-6.192764E2,-1.1349723E3,-7.137229E2,5.973229E2,3.3630784E3,2.375034E3,2.2693053E2,1.1936923E3,2.5480132E3,4.3087295E3,1.315282E3,4.2104688E3,6.2988735E3,4.7520728E3,2.839207E3,1.854945E3,2.5949885E3,6.5671587E3,5.3897407E3,1.5967711E3,4.2306943E3,-9.442074E1,-8.754993E1,-9.015716E1,-7.741842E1,-8.375589E1,-6.75679E1,-7.439298E1,-5.5813576E1,-6.487544E1,-4.4169353E1,-3.8196926E1,1.6395884E1,-4.217882E1,-1.854851E1,-6.3694344E0,5.0621418E1,-1.7429289E0,5.745828E1,-3.2315273E1,1.2072494E1,-3.942324E1,-6.1895943E1,-3.964928E1,-1.9832613E1,3.4160686E1,-2.4362225E1,1.7494121E2,8.279639E0,1.0200286E2,1.9475964E2,5.0272343E1,1.1537365E2,1.3741248E2,4.1941578E1,2.2706558E2,7.500015E1,2.7931585E1,1.26629616E2,1.854686E2,3.579242E2,2.3352518E2,3.5422537E2,2.6893677E2,1.63934E2,1.1205116E2,1.9340764E2,9.707151E1,5.586993E1,1.3269841E2,2.9451742E0,3.3851138E2,2.854301E2,2.2588867E2,2.9982965E2,8.487729E1,9.491614E0,1.6526285E2,2.6904343E2],"categories":[],"categories_nodes":[],"categories_segments":[],"categories_sizes":[],"default_left":[0,0,0,0,0,0,0,0,0,0,0,0,0,0,0,0,0,0,0,0,0,0,0,0,0,0,0,0,0,0,0,0,0,0,0,0,0,0,0,0,0,0,0,0,0,0,0,0,0,0,0,0,0,0,0,0,0,0,0,0,0,0,0,0,0,0,0,0,0,0,0,0,0,0,0,0,0,0,0,0,0,0,0,0,0,0,0,0,0,0,0,0,0,0,0,0,0,0,0,0,0,0,0,0,0,0,0,0,0,0,0,0,0,0,0,0,0,0,0],"id":15,"left_children":[1,3,5,7,9,11,13,15,17,19,21,23,25,27,29,31,33,35,37,39,41,43,45,47,49,51,-1,53,55,57,59,61,63,65,67,69,71,73,75,77,79,81,83,85,87,89,-1,91,93,95,97,99,101,103,105,107,109,111,113,115,117,-1,-1,-1,-1,-1,-1,-1,-1,-1,-1,-1,-1,-1,-1,-1,-1,-1,-1,-1,-1,-1,-1,-1,-1,-1,-1,-1,-1,-1,-1,-1,-1,-1,-1,-1,-1,-1,-1,-1,-1,-1,-1,-1,-1,-1,-1,-1,-1,-1,-1,-1,-1,-1,-1,-1,-1,-1,-1],"loss_changes":[8.921158E10,1.5974461E10,1.4573306E10,2.256474E9,1.1106129E9,1.4242417E9,2.9192602E9,8.831795E7,3.464156E8,6.692125E7,8.72756E8,1.5075768E9,7.942477E7,8.973537E8,8.502968E8,4.267008E7,1.760256E7,7.467008E7,8.271603E7,7.012976E7,3.686384E6,7.213453E8,1.1236762E8,1.2517955E9,1.4106112E8,8.456499E7,0E0,9.1447296E8,2.389312E7,1.926144E8,1.0560554E8,2.7891712E7,8.544512E6,1.502464E7,1.0291712E7,5.6492544E7,2.6943656E7,7.771981E7,1.8477266E7,6.5471064E7,4.94856E6,3.08128E5,1.696012E6,3.2329933E8,4.1522944E7,9.94985E7,0E0,4.7445632E8,3.3240627E8,1.5127654E8,1.6085702E7,1.0639808E8,1.0408064E7,1.116203E9,1.8952192E8,6.122912E6,1.285696E7,1.1686707E8,8.244378E7,5.774448E6,9.889632E6,0E0,0E0,0E0,0E0,0E0,0E0,0E0,0E0,0E0,0E0,0E0,0E0,0E0,0E0,0E0,0E0,0E0,0E0,0E0,0E0,0E0,0E0,0E0,0E0,0E0,0E0,0E0,0E0,0E0,0E0,0E0,0E0,0E0,0E0,0E0,0E0,0E0,0E0,0E0,0E0,0E0,0E0,0E0,0E0,0E0,0E0,0E0,0E0,0E0,0E0,0E0,0E0,0E0,0E0,0E0,0E0,0E0,0E0],"parents":[2147483647,0,0,1,1,2,2,3,3,4,4,5,5,6,6,7,7,8,8,9,9,10,10,11,11,12,12,13,13,14,14,15,15,16,16,17,17,18,18,19,19,20,20,21,21,22,22,23,23,24,24,25,25,27,27,28,28,29,29,30,30,31,31,32,32,33,33,34,34,35,35,36,36,37,37,38,38,39,39,40,40,41,41,42,42,43,43,44,44,45,45,47,47,48,48,49,49,50,50,51,51,52,52,53,53,54,54,55,55,56,56,57,57,58,58,59,59,60,60],"right_children":[2,4,6,8,10,12,14,16,18,20,22,24,26,28,30,32,34,36,38,40,42,44,46,48,50,52,-1,54,56,58,60,62,64,66,68,70,72,74,76,78,80,82,84,86,88,90,-1,92,94,96,98,100,102,104,106,108,110,112,114,116,118,-1,-1,-1,-1,-1,-1,-1,-1,-1,-1,-1,-1,-1,-1,-1,-1,-1,-1,-1,-1,-1,-1,-1,-1,-1,-1,-1,-1,-1,-1,-1,-1,-1,-1,-1,-1,-1,-1,-1,-1,-1,-1,-1,-1,-1,-1,-1,-1,-1,-1,-1,-1,-1,-1,-1,-1,-1,-1],"split_conditions":[1.09E0,8E-1,1.51E0,5.1E-1,1E0,1E0,2E0,4.1E-1,7E-1,1E0,1E0,1E0,1E0,1E0,1E0,1E0,4.6E-1,1E0,1E0,1E0,9E-1,1E0,1E0,1.28E0,1E0,1E0,4.027211E2,1E0,1.59E0,1E0,2.38E0,1E0,3E-1,1E0,1E0,1E0,1E0,1E0,1E0,1E0,1E0,5.61E1,1E0,1E0,1E0,1E0,2.2693053E2,1E0,1E0,1E0,1.24E0,1E0,1.15E0,1E0,1.62E0,1E0,1E0,6.3E1,2.05E0,1E0,6.48E1,-9.442074E1,-8.754993E1,-9.015716E1,-7.741842E1,-8.375589E1,-6.75679E1,-7.439298E1,-5.5813576E1,-6.487544E1,-4.4169353E1,-3.8196926E1,1.6395884E1,-4.217882E1,-1.854851E1,-6.3694344E0,5.0621418E1,-1.7429289E0,5.745828E1,-3.2315273E1,1.2072494E1,-3.942324E1,-6.1895943E1,-3.964928E1,-1.9832613E1,3.4160686E1,-2.4362225E1,1.7494121E2,8.279639E0,1.0200286E2,1.9475964E2,5.0272343E1,1.1537365E2,1.3741248E2,4.1941578E1,2.2706558E2,7.500015E1,2.7931585E1,1.26629616E2,1.854686E2,3.579242E2,2.3352518E2,3.5422537E2,2.6893677E2,1.63934E2,1.1205116E2,1.9340764E2,9.707151E1,5.586993E1,1.3269841E2,2.9451742E0,3.3851138E2,2.854301E2,